{"learner":{"attributes":{"scikit_learn":"{\"_estimator_type\": \"regressor\"}"},"feature_names":[],"feature_types":[],"gradient_booster":{"model":{"cats":{"enc":[],"feature_segments":[],"sorted_idx":[]},"gbtree_model_param":{"num_parallel_tree":"1","num_trees":"200"},"iteration_indptr":[0,1,2,3,4,5,6,7,8,9,10,11,12,13,14,15,16,17,18,19,20,21,22,23,24,25,26,27,28,29,30,31,32,33,34,35,36,37,38,39,40,41,42,43,44,45,46,47,48,49,50,51,52,53,54,55,56,57,58,59,60,61,62,63,64,65,66,67,68,69,70,71,72,73,74,75,76,77,78,79,80,81,82,83,84,85,86,87,88,89,90,91,92,93,94,95,96,97,98,99,100,101,102,103,104,105,106,107,108,109,110,111,112,113,114,115,116,117,118,119,120,121,122,123,124,125,126,127,128,129,130,131,132,133,134,135,136,137,138,139,140,141,142,143,144,145,146,147,148,149,150,151,152,153,154,155,156,157,158,159,160,161,162,163,164,165,166,167,168,169,170,171,172,173,174,175,176,177,178,179,180,181,182,183,184,185,186,187,188,189,190,191,192,193,194,195,196,197,198,199,200],"tree_info":[0,0,0,0,0,0,0,0,0,0,0,0,0,0,0,0,0,0,0,0,0,0,0,0,0,0,0,0,0,0,0,0,0,0,0,0,0,0,0,0,0,0,0,0,0,0,0,0,0,0,0,0,0,0,0,0,0,0,0,0,0,0,0,0,0,0,0,0,0,0,0,0,0,0,0,0,0,0,0,0,0,0,0,0,0,0,0,0,0,0,0,0,0,0,0,0,0,0,0,0,0,0,0,0,0,0,0,0,0,0,0,0,0,0,0,0,0,0,0,0,0,0,0,0,0,0,0,0,0,0,0,0,0,0,0,0,0,0,0,0,0,0,0,0,0,0,0,0,0,0,0,0,0,0,0,0,0,0,0,0,0,0,0,0,0,0,0,0,0,0,0,0,0,0,0,0,0,0,0,0,0,0,0,0,0,0,0,0,0,0,0,0,0,0,0,0,0,0,0,0],"trees":[{"base_weights":[6.8808466E-2,-2.063943E1,4.5910736E1,-3.789568E1,-4.045187E0,3.5477665E1,1.1060188E2,-4.5320442E1,-2.9762642E1,-4.7639093E0,8.1188345E0,2.5934608E1,5.247859E1,9.8563286E1,2.4208604E2,-5.0729652E1,-4.155306E1,-3.3000378E1,-2.2811834E1,-1.3560253E1,4.3720183E0,2.0594353E1,3.2006573E1,4.6206856E1,6.2719486E1,9.090717E1,6.4793315E0,1.4876932E1,1.0007956E1,-5.3249454E1,-2.353963E0,-4.356034E1,-1.920072E0,-3.447913E1,-2.3365917E1,-2.4504332E1,-9.649165E-1,-1.47180605E1,7.5886955E0,-8.00964E-1,7.3865128E0,1.8385815E1,1.1544136E0,2.9101084E1,1.7893908E0,4.411641E1,2.9065754E0,5.977965E1,3.9940507E0,3.9182937E0,4.8617296E0,-2.7255924E0,-2.3527038E0,-2.2855635E0,-1.9564384E0,-3.6118362E1,-1.522333E0,-1.2613907E0,-9.60423E-1,-2.4868568E1,-8.9813584E-1,-2.1081964E1,-1.0965144E1,4.1577377E0,1.3430376E0,-1.1413866E0,1.4498025E1,8.656982E0,-9.697369E0,8.3431655E-1,9.5517695E-1,1.3825598E0,1.5412807E0,2.073204E0,2.3621519E0,2.7894619E0,3.1738162E0,-3.950186E1,-1.62929E0,-1.3051292E0,-1.1453112E0,-2.3710558E1,-5.5257306E0,-1.3665374E1,-7.6565795E0,-9.16808E-1,7.885563E0,-2.867991E0,9.035018E-1,4.25205E-1,1.1430686E0,6.055241E0,1.17795925E1,-1.1450169E1,5.936731E-1,-2.0173123E0,-1.3200712E0,-1.2147627E0,2.1878188E0,-4.6058616E-1,2.3513685E-1,-7.165105E-1,-2.802759E-1,-4.0452576E-1,3.857195E-1,-1.15789294E-1,4.3776732E-2,-2.3026848E-2,4.4555837E-1,-1.5562432E-1,2.7182993E-1,3.480368E-2,4.1965947E-1,2.9009005E-1,1.0433642E0,5.152953E-1,6.5864015E-1,-4.7566038E-1,-1.1824931E0],"categories":[],"categories_nodes":[],"categories_segments":[],"categories_sizes":[],"default_left":[0,0,0,0,0,0,0,0,0,0,0,0,0,0,0,0,0,0,0,0,0,0,0,0,0,0,0,0,0,0,0,0,0,0,0,0,0,0,0,0,0,0,0,0,0,0,0,0,0,0,0,0,0,0,0,0,0,0,0,0,0,0,0,0,0,0,0,0,0,0,0,0,0,0,0,0,0,0,0,0,0,0,0,0,0,0,0,0,0,0,0,0,0,0,0,0,0,0,0,0,0,0,0,0,0,0,0,0,0,0,0,0,0,0,0,0,0,0,0],"id":0,"left_children":[1,3,5,7,9,11,13,15,17,19,-1,21,23,25,27,29,31,33,35,37,39,41,43,45,47,49,-1,-1,-1,51,-1,53,-1,55,57,59,-1,61,63,65,67,69,-1,71,-1,73,-1,75,-1,-1,-1,-1,-1,-1,-1,77,-1,-1,-1,79,-1,81,83,85,-1,87,89,91,93,-1,-1,-1,-1,-1,-1,-1,-1,95,-1,-1,-1,97,99,101,103,105,107,109,111,-1,-1,113,115,117,-1,-1,-1,-1,-1,-1,-1,-1,-1,-1,-1,-1,-1,-1,-1,-1,-1,-1,-1,-1,-1,-1,-1,-1,-1],"loss_changes":[7.5232445E6,1.563055E6,1.6604475E6,1.6024375E5,3.337709E5,3.4340075E5,5.1748525E5,2.6361E4,2.8053375E4,2.2290522E5,0E0,4.353725E4,4.610825E4,6.3038E4,5.54375E3,2.726875E3,3.571625E3,1.16034375E4,1.9652344E3,3.4710984E4,2.122925E4,3.58525E3,5.945875E3,9.3259375E3,9.704375E3,1.269475E4,0E0,0E0,0E0,8.0625E0,0E0,2.967875E3,0E0,3.8778125E3,4.365664E2,2.0376562E2,0E0,3.1772344E4,4.7813193E3,2.631025E3,1.8749863E4,1.5814062E2,0E0,6.028125E1,0E0,1.4411875E3,0E0,1.3175E2,0E0,0E0,0E0,0E0,0E0,0E0,0E0,5.0475625E3,0E0,0E0,0E0,2.2015625E1,0E0,2.0150906E4,7.4445E3,1.2179187E3,0E0,1.7397021E3,3.5700635E2,6.4361797E3,2.4045137E3,0E0,0E0,0E0,0E0,0E0,0E0,0E0,0E0,1.8771875E3,0E0,0E0,0E0,1.7788875E4,2.7955703E3,2.4060078E3,2.6103594E3,7.223609E1,3.208164E2,5.590469E2,3.4526508E2,0E0,0E0,1.5269229E3,6.0953125E2,1.098312E3,0E0,0E0,0E0,0E0,0E0,0E0,0E0,0E0,0E0,0E0,0E0,0E0,0E0,0E0,0E0,0E0,0E0,0E0,0E0,0E0,0E0,0E0,0E0,0E0,0E0],"parents":[2147483647,0,0,1,1,2,2,3,3,4,4,5,5,6,6,7,7,8,8,9,9,11,11,12,12,13,13,14,14,15,15,16,16,17,17,18,18,19,19,20,20,21,21,22,22,23,23,24,24,25,25,29,29,31,31,33,33,34,34,35,35,37,37,38,38,39,39,40,40,41,41,43,43,45,45,47,47,55,55,59,59,61,61,62,62,63,63,65,65,66,66,67,67,68,68,77,77,81,81,82,82,83,83,84,84,85,85,86,86,87,87,88,88,91,91,92,92,93,93],"right_children":[2,4,6,8,10,12,14,16,18,20,-1,22,24,26,28,30,32,34,36,38,40,42,44,46,48,50,-1,-1,-1,52,-1,54,-1,56,58,60,-1,62,64,66,68,70,-1,72,-1,74,-1,76,-1,-1,-1,-1,-1,-1,-1,78,-1,-1,-1,80,-1,82,84,86,-1,88,90,92,94,-1,-1,-1,-1,-1,-1,-1,-1,96,-1,-1,-1,98,100,102,104,106,108,110,112,-1,-1,114,116,118,-1,-1,-1,-1,-1,-1,-1,-1,-1,-1,-1,-1,-1,-1,-1,-1,-1,-1,-1,-1,-1,-1,-1,-1,-1],"split_conditions":[3.800386E-1,-5.526646E-1,1.9110478E0,-9.2630464E-1,1.9637287E0,1.1373578E0,3.3044407E0,-1.150847E0,-6.183934E-1,-1.015903E-1,8.1188345E0,7.013512E-1,1.5599892E0,2.5808518E0,6.21806E-1,-1.1481234E0,-6.5847814E-1,1.2449073E-2,-4.6412644E-1,2.4329543E0,7.6420456E-2,5.358222E-1,9.264399E-1,1.6157498E0,2.1901937E0,2.1035693E0,6.4793315E0,1.4876932E1,1.0007956E1,-1.1085414E0,-2.353963E0,-9.2601526E-1,-1.920072E0,-7.3213553E-1,2.8498456E-1,3.4377873E-1,-9.649165E-1,-4.1320258E-1,3.5971532E0,2.917503E0,3.5830727E-1,4.291011E-1,1.1544136E0,8.208059E-1,1.7893908E0,1.3195075E0,2.9065754E0,1.7564938E0,3.9940507E0,3.9182937E0,4.8617296E0,-2.7255924E0,-2.3527038E0,-2.2855635E0,-1.9564384E0,-4.719904E-1,-1.522333E0,-1.2613907E0,-9.60423E-1,-5.287636E-1,-8.9813584E-1,7.112423E-1,-2.2930294E-1,2.787382E0,1.3430376E0,-9.43897E-3,3.5971532E0,2.1220678E-1,1.454262E0,8.3431655E-1,9.5517695E-1,1.3825598E0,1.5412807E0,2.073204E0,2.3621519E0,2.7894619E0,3.1738162E0,9.968698E-1,-1.62929E0,-1.3051292E0,-1.1453112E0,7.434227E-1,1.3543036E0,4.7942296E-2,2.4218348E-1,2.5788918E0,-3.9292616E-1,1.52793E0,1.695126E0,4.25205E-1,1.1430686E0,3.2681262E0,2.855195E-1,7.0047426E-1,5.936731E-1,-2.0173123E0,-1.3200712E0,-1.2147627E0,2.1878188E0,-4.6058616E-1,2.3513685E-1,-7.165105E-1,-2.802759E-1,-4.0452576E-1,3.857195E-1,-1.15789294E-1,4.3776732E-2,-2.3026848E-2,4.4555837E-1,-1.5562432E-1,2.7182993E-1,3.480368E-2,4.1965947E-1,2.9009005E-1,1.0433642E0,5.152953E-1,6.5864015E-1,-4.7566038E-1,-1.1824931E0],"split_indices":[1,24,0,24,0,1,0,24,1,1,0,1,1,0,37,3,3,3,1,4,1,1,1,0,1,0,0,0,0,1,0,1,0,1,3,3,0,1,4,4,1,1,0,1,0,1,0,1,0,0,0,0,0,0,0,3,0,0,0,1,0,3,1,4,0,1,4,1,34,0,0,0,0,0,0,0,0,4,0,0,0,0,3,29,29,4,34,3,3,0,0,4,1,27,0,0,0,0,0,0,0,0,0,0,0,0,0,0,0,0,0,0,0,0,0,0,0,0,0],"split_type":[0,0,0,0,0,0,0,0,0,0,0,0,0,0,0,0,0,0,0,0,0,0,0,0,0,0,0,0,0,0,0,0,0,0,0,0,0,0,0,0,0,0,0,0,0,0,0,0,0,0,0,0,0,0,0,0,0,0,0,0,0,0,0,0,0,0,0,0,0,0,0,0,0,0,0,0,0,0,0,0,0,0,0,0,0,0,0,0,0,0,0,0,0,0,0,0,0,0,0,0,0,0,0,0,0,0,0,0,0,0,0,0,0,0,0,0,0,0,0],"sum_hessian":[7.923E3,5.458E3,2.465E3,2.675E3,2.783E3,2.124E3,3.41E2,1.396E3,1.279E3,2.772E3,1.1E1,1.362E3,7.62E2,3.14E2,2.7E1,5.68E2,8.28E2,8.7E2,4.09E2,1.412E3,1.36E3,7.27E2,6.35E2,4.76E2,2.86E2,2.55E2,5.9E1,9E0,1.8E1,3.28E2,2.4E2,4.98E2,3.3E2,7.52E2,1.18E2,2.72E2,1.37E2,1.339E3,7.3E1,5.01E2,8.59E2,3.9E2,3.37E2,3.64E2,2.71E2,4.09E2,6.7E1,2.48E2,3.8E1,9E1,1.65E2,2.66E2,6.2E1,3.29E2,1.69E2,5.29E2,2.23E2,7.8E1,4E1,2.55E2,1.7E1,4.95E2,8.44E2,6.3E1,1E1,4.91E2,1E1,8E2,5.9E1,1.23E2,2.67E2,2.07E2,1.57E2,2.29E2,1.8E2,1.27E2,1.21E2,2.65E2,2.64E2,1.49E2,1.06E2,4.23E2,7.2E1,4.63E2,3.81E2,2.7E1,3.6E1,2.66E2,2.25E2,7E0,3E0,4.38E2,3.62E2,5.5E1,4E0,2.47E2,1.8E1,4.2E2,3E0,5.3E1,1.9E1,4.27E2,3.6E1,3.71E2,1E1,1.5E1,1.2E1,4E0,3.2E1,2.59E2,7E0,2.2E2,5E0,4.32E2,6E0,1.8E2,1.82E2,4.9E1,6E0],"tree_param":{"num_deleted":"0","num_feature":"38","num_nodes":"119","size_leaf_vector":"1"}},{"base_weights":[-2.6777208E-2,-1.9479359E1,4.3591785E1,-3.5802475E1,-3.4704795E0,3.4497417E1,1.09198746E2,-4.2888393E1,-2.8102444E1,-4.270224E0,1.4503352E2,2.4443089E1,5.022226E1,9.7157906E1,1.1134849E1,-4.725562E1,-3.8906017E1,-3.1124012E1,-2.199529E1,-1.2976596E1,3.4251626E0,3.5521247E0,7.880554E0,2.0100681E1,3.0738136E1,4.3418583E1,5.990901E1,8.8533424E1,6.2540503E0,-4.9612644E1,-2.1077673E0,-4.0295723E1,-3.55415E1,-3.254695E1,-2.1400106E1,-2.3970062E1,-1.6785429E1,-1.6730864E1,-5.4296007E0,-1.8420388E0,6.634539E0,1.7223724E1,2.226171E1,1.4091375E0,1.682249E0,4.135291E1,2.7861116E0,5.573474E1,3.4951882E0,3.9624593E0,4.743042E0,-2.5323722E0,-2.2058008E0,-2.094137E0,-3.6423496E1,-1.8142859E0,-1.1706395E0,-3.4589684E1,-2.8746325E1,-1.1773252E0,-1.5353103E1,-2.4303617E1,-8.7384635E-1,-9.1771936E-1,-1.0469015E1,-2.2188556E0,-1.6128565E1,-7.9120617E0,1.151263E1,-2.2706614E0,1.1190411E1,7.8254604E0,-9.934074E0,7.928522E-1,8.959452E-1,1.0457953E0,1.2015244E0,1.9250771E0,2.1914365E0,2.629026E0,3.1678646E0,-1.8652735E0,-1.3957436E0,-3.533282E1,-1.4628859E0,-2.8961636E1,-8.2135725E-1,-8.1491864E-1,-4.191494E-1,-1.291399E0,-1.1334752E0,-5.7869685E-1,-2.3363999E-1,-1.634176E1,1.6630589E0,-8.499425E0,4.372655E0,8.129323E0,1.3131455E0,-3.8343866E0,-2.3549527E-1,8.624883E0,9.0067685E-1,5.272596E0,1.1155432E1,-1.4049458E1,9.0627795E-1,-1.8595593E0,-1.626213E0,-1.454657E0,-6.521017E-1,-9.314062E-1,-5.891897E-1,-4.4607115E-1,4.225074E-3,6.8375655E-2,4.4498307E-1,1.5867768E-1,6.0050005E-1,-2.0450096E-1,1.3953762E-1,-4.132285E-2,3.8725093E-2,2.5786138E-1,5.5072135E-1,1.869906E-1,3.2504377E-1,4.8203865E-1,6.047715E-1,-1.5660483E0,-6.035021E-1,-1.2573819E-1,6.754308E-1],"categories":[],"categories_nodes":[],"categories_segments":[],"categories_sizes":[],"default_left":[0,0,0,0,0,0,0,0,0,0,0,0,0,0,0,0,0,0,0,0,0,0,0,0,0,0,0,0,0,0,0,0,0,0,0,0,0,0,0,0,0,0,0,0,0,0,0,0,0,0,0,0,0,0,0,0,0,0,0,0,0,0,0,0,0,0,0,0,0,0,0,0,0,0,0,0,0,0,0,0,0,0,0,0,0,0,0,0,0,0,0,0,0,0,0,0,0,0,0,0,0,0,0,0,0,0,0,0,0,0,0,0,0,0,0,0,0,0,0,0,0,0,0,0,0,0,0,0,0,0,0,0,0],"id":1,"left_children":[1,3,5,7,9,11,13,15,17,19,21,23,25,27,-1,29,31,33,35,37,39,-1,-1,41,43,45,47,49,-1,51,-1,53,55,57,59,61,63,65,67,69,71,73,75,-1,-1,77,-1,79,-1,-1,-1,-1,-1,-1,81,-1,-1,83,85,-1,87,89,-1,-1,91,-1,93,95,97,99,101,103,105,-1,-1,-1,-1,-1,-1,-1,-1,-1,-1,107,-1,109,-1,-1,-1,-1,-1,-1,-1,111,-1,113,115,117,-1,119,121,123,-1,125,127,129,131,-1,-1,-1,-1,-1,-1,-1,-1,-1,-1,-1,-1,-1,-1,-1,-1,-1,-1,-1,-1,-1,-1,-1,-1,-1,-1],"loss_changes":[6.7896465E6,1.4459918E6,1.468774E6,1.48294E5,3.3256825E5,3.416975E5,3.8834725E5,2.2945E4,2.359975E4,1.8636839E5,2.7623125E3,3.5601875E4,5.3089E4,5.467075E4,0E0,6.023125E3,2.07925E3,1.1452E4,4.1141875E3,3.6884297E4,2.4980066E4,0E0,0E0,4.5095E3,3.0555312E3,1.04033125E4,1.0539375E4,4.93625E3,0E0,3.59375E2,0E0,1.6946875E3,1.2084688E3,4.9370625E3,1.1311094E3,2.5967188E2,1.0367109E3,1.3787547E4,1.8386506E4,3.1535708E3,1.8191633E4,4.0804688E1,5.590469E2,0E0,0E0,1.36225E3,0E0,2.6554375E3,0E0,0E0,0E0,0E0,0E0,0E0,1.593125E2,0E0,0E0,9.1575E2,2.4835938E2,0E0,8.079639E1,1.5679688E2,0E0,0E0,1.1883496E2,0E0,9.5359375E3,2.7790898E3,2.5811646E3,1.7271621E3,1.5972363E2,7.2265117E3,2.77869E3,0E0,0E0,0E0,0E0,0E0,0E0,0E0,0E0,0E0,0E0,1.0190625E3,0E0,1.7951562E2,0E0,0E0,0E0,0E0,0E0,0E0,0E0,8.648891E3,0E0,1.3156855E3,2.3270691E2,8.657776E2,0E0,5.313496E2,1.4209819E2,6.748779E1,0E0,8.9255664E2,4.1161328E2,1.1603916E3,8.1000726E2,0E0,0E0,0E0,0E0,0E0,0E0,0E0,0E0,0E0,0E0,0E0,0E0,0E0,0E0,0E0,0E0,0E0,0E0,0E0,0E0,0E0,0E0,0E0,0E0,0E0,0E0],"parents":[2147483647,0,0,1,1,2,2,3,3,4,4,5,5,6,6,7,7,8,8,9,9,10,10,11,11,12,12,13,13,15,15,16,16,17,17,18,18,19,19,20,20,23,23,24,24,25,25,26,26,27,27,29,29,31,31,32,32,33,33,34,34,35,35,36,36,37,37,38,38,39,39,40,40,41,41,42,42,45,45,47,47,54,54,57,57,58,58,60,60,61,61,64,64,66,66,67,67,68,68,69,69,70,70,71,71,72,72,83,83,85,85,93,93,95,95,96,96,97,97,99,99,100,100,101,101,103,103,104,104,105,105,106,106],"right_children":[2,4,6,8,10,12,14,16,18,20,22,24,26,28,-1,30,32,34,36,38,40,-1,-1,42,44,46,48,50,-1,52,-1,54,56,58,60,62,64,66,68,70,72,74,76,-1,-1,78,-1,80,-1,-1,-1,-1,-1,-1,82,-1,-1,84,86,-1,88,90,-1,-1,92,-1,94,96,98,100,102,104,106,-1,-1,-1,-1,-1,-1,-1,-1,-1,-1,108,-1,110,-1,-1,-1,-1,-1,-1,-1,112,-1,114,116,118,-1,120,122,124,-1,126,128,130,132,-1,-1,-1,-1,-1,-1,-1,-1,-1,-1,-1,-1,-1,-1,-1,-1,-1,-1,-1,-1,-1,-1,-1,-1,-1,-1],"split_conditions":[3.800386E-1,-5.405622E-1,1.9637287E0,-9.6689594E-1,1.757614E0,1.1161498E0,3.3044407E0,-1.1585782E0,-6.3977474E-1,-1.2963474E-1,2.7529473E0,7.318761E-1,1.5185311E0,2.5808518E0,1.1134849E1,-1.0231857E0,-5.834544E-1,1.2449073E-2,-4.7340122E-1,-1.9583212E-1,5.4800488E-2,3.5521247E0,7.880554E0,5.225172E-1,9.264399E-1,1.6157498E0,1.9631482E0,2.1717353E0,6.2540503E0,-1.0855771E0,-2.1077673E0,-9.106177E-1,-8.573525E-1,-7.8058815E-1,3.9399874E-1,2.8498456E-1,-5.1930785E-1,-1.0239338E0,1.2769748E-1,2.8834474E-1,3.5830727E-1,4.291011E-1,6.36406E-1,1.4091375E0,1.682249E0,1.2777718E0,2.7861116E0,1.757614E0,3.4951882E0,3.9624593E0,4.743042E0,-2.5323722E0,-2.2058008E0,-2.094137E0,-7.3213553E-1,-1.8142859E0,-1.1706395E0,-7.3213553E-1,1.4259684E0,-1.1773252E0,7.112423E-1,-5.6490827E-1,-8.7384635E-1,-9.1771936E-1,-3.807319E-1,-2.2188556E0,6.5965855E-1,2.502057E0,3.5971532E0,-3.6324725E-2,3.2681262E0,2.1220678E-1,1.3149E-2,7.928522E-1,8.959452E-1,1.0457953E0,1.2015244E0,1.9250771E0,2.1914365E0,2.629026E0,3.1678646E0,-1.8652735E0,-1.3957436E0,-4.499426E-1,-1.4628859E0,-1.01542324E-1,-8.2135725E-1,-8.1491864E-1,-4.191494E-1,-1.291399E0,-1.1334752E0,-5.7869685E-1,-2.3363999E-1,-3.4648135E-1,1.6630589E0,1.1871076E0,2.917503E0,9.879898E-2,1.3131455E0,2.5788918E0,2.0342175E-2,3.6294094E-1,9.0067685E-1,1.2842609E-1,2.734501E-1,-3.805066E-1,1.9055945E-1,-1.8595593E0,-1.626213E0,-1.454657E0,-6.521017E-1,-9.314062E-1,-5.891897E-1,-4.4607115E-1,4.225074E-3,6.8375655E-2,4.4498307E-1,1.5867768E-1,6.0050005E-1,-2.0450096E-1,1.3953762E-1,-4.132285E-2,3.8725093E-2,2.5786138E-1,5.5072135E-1,1.869906E-1,3.2504377E-1,4.8203865E-1,6.047715E-1,-1.5660483E0,-6.035021E-1,-1.2573819E-1,6.754308E-1],"split_indices":[1,22,0,22,0,1,0,22,1,1,0,1,1,0,0,3,3,3,1,25,1,0,0,1,1,0,1,0,0,1,0,1,24,25,3,3,24,25,25,25,1,1,1,0,0,1,0,0,0,0,0,0,0,0,1,0,0,1,4,0,3,1,0,0,24,0,0,4,4,1,4,1,25,0,0,0,0,0,0,0,0,0,0,3,0,0,0,0,0,0,0,0,0,1,0,3,4,24,0,4,1,25,0,1,1,25,25,0,0,0,0,0,0,0,0,0,0,0,0,0,0,0,0,0,0,0,0,0,0,0,0,0,0],"split_type":[0,0,0,0,0,0,0,0,0,0,0,0,0,0,0,0,0,0,0,0,0,0,0,0,0,0,0,0,0,0,0,0,0,0,0,0,0,0,0,0,0,0,0,0,0,0,0,0,0,0,0,0,0,0,0,0,0,0,0,0,0,0,0,0,0,0,0,0,0,0,0,0,0,0,0,0,0,0,0,0,0,0,0,0,0,0,0,0,0,0,0,0,0,0,0,0,0,0,0,0,0,0,0,0,0,0,0,0,0,0,0,0,0,0,0,0,0,0,0,0,0,0,0,0,0,0,0,0,0,0,0,0,0],"sum_hessian":[8E3,5.533E3,2.467E3,2.739E3,2.794E3,2.168E3,2.99E2,1.424E3,1.315E3,2.78E3,1.4E1,1.324E3,8.44E2,2.72E2,2.7E1,6.74E2,7.5E2,8.77E2,4.38E2,1.304E3,1.476E3,3E0,1.1E1,7.86E2,5.38E2,4.99E2,3.45E2,2.11E2,6.1E1,4.55E2,2.19E2,5.23E2,2.27E2,7.63E2,1.14E2,3.15E2,1.23E2,8.7E2,4.34E2,5.59E2,9.17E2,3.41E2,4.45E2,2.92E2,2.46E2,4.31E2,6.8E1,2.48E2,9.7E1,9.1E1,1.2E2,3.76E2,7.9E1,3.64E2,1.59E2,2.12E2,1.5E1,4.91E2,2.72E2,8.2E1,3.2E1,2.97E2,1.8E1,9.7E1,2.6E1,1.7E1,8.53E2,3.79E2,5.5E1,5.42E2,1.7E1,8.56E2,6.1E1,1.23E2,2.18E2,2.6E2,1.85E2,2.08E2,2.23E2,1.81E2,6.7E1,1.41E2,1.8E1,4.26E2,6.5E1,2.66E2,6E0,2.7E1,5E0,1.46E2,1.51E2,2.1E1,5E0,8.5E2,3E0,3.62E2,1.7E1,4.6E1,9E0,3.06E2,2.36E2,1.4E1,3E0,4.86E2,3.7E2,4.4E1,1.7E1,2.49E2,1.77E2,2.63E2,3E0,5.64E2,2.86E2,3.45E2,1.7E1,1.1E1,6E0,2.1E1,2.5E1,2.95E2,1.1E1,1.49E2,8.7E1,7E0,7E0,2.18E2,2.68E2,1.46E2,2.24E2,3E0,4.1E1,1.4E1,3E0],"tree_param":{"num_deleted":"0","num_feature":"38","num_nodes":"133","size_leaf_vector":"1"}},{"base_weights":[-3.8088188E-1,-1.825704E1,4.0641056E1,-3.400577E1,-2.861758E0,3.125462E1,8.508517E1,-4.0998226E1,-2.6647663E1,-1.0609247E1,4.557475E0,2.382502E1,4.615639E1,7.890538E1,2.1871664E2,-4.709069E1,-3.8205975E1,-2.9700935E1,-2.0570107E1,-1.4764565E1,-3.5951908E0,3.1483767E0,3.9753307E1,2.331617E1,1.1681218E2,4.522373E1,7.9831614E0,6.516424E1,9.294351E1,1.3592341E1,6.769062E0,-2.4477973E0,-2.144204E0,-3.986235E1,-3.4892895E1,-3.1106117E1,-2.0187294E1,-2.2211285E1,-1.3942355E1,-1.5525634E1,-2.124749E0,-6.835999E0,5.219169E-1,-2.6814081E1,3.9727337E0,9.0907955E0,7.4434867E0,1.8636671E1,2.8663218E1,7.2839637E0,2.937102E0,3.905742E1,5.1052567E1,2.825841E0,3.5362911E0,3.7980614E0,9.805278E1,-4.1567013E1,-3.5633137E1,-1.7563345E0,-8.2066554E-1,-3.3531914E1,-2.810792E1,-1.0981096E0,-1.3130451E1,-2.2571453E1,-1.4578204E1,-1.5562557E1,-5.878962E0,-1.810352E1,-1.2180012E1,-4.166421E0,8.541792E-1,-7.777558E0,-2.6178458E-1,-1.4324067E0,5.4911795E0,-3.4416424E1,-1.1866199E1,4.0326115E-1,8.447394E0,2.53709E0,4.8055563E0,1.667614E1,1.0563477E0,1.2551664E0,3.0909075E1,1.8799975E0,2.177683E0,4.8594284E1,3.4232152E0,4.400045E0,5.3208857E0,-2.084183E0,-9.099308E-1,-1.8105696E0,-1.2888545E0,-3.5064865E1,-1.5294154E0,-2.9158663E1,-2.5055885E1,-7.205043E-1,-3.2316598E-1,-1.1970925E0,-1.0095935E0,-7.8847784E-1,-3.0841216E-1,-8.152108E-1,-6.014747E-1,-7.4467897E0,5.3908825E-2,-1.9058834E1,-9.965176E0,-1.2468069E1,-6.0782704E0,-5.829399E0,5.1057544E-2,-7.92657E0,-5.1821675E-2,-3.0166032E0,-2.075639E-1,4.3445973E0,6.00767E-1,-2.0138004E0,-1.1915004E0,1.2106848E-1,-1.5982933E1,2.07107E-2,3.5728416E0,6.6024323E0,1.3058943E1,-7.1744496E-1,8.747576E0,7.5386184E-1,8.6716187E-1,2.4922504E0,3.06216E1,2.2788742E0,2.5847778E0,-1.8038914E0,-1.3855432E0,-1.463869E0,-7.194852E-1,-1.2797766E0,-7.926447E-1,-4.1012773E-1,-1.7533694E-1,3.951203E-1,-9.6393013E-1,-6.181788E-1,-3.7320927E-1,-7.058286E-1,-5.6539744E-1,-3.3501709E-1,-1.1129675E-1,-3.181893E-1,-1.6819839E-1,-5.1968455E-2,1.5184832E-1,-4.2924652E-1,-3.4604403E-1,-3.0881378E-1,-1.3931893E-1,8.758909E-3,-1.7009205E-1,-1.2050199E-2,2.5023007E-1,-3.174778E-1,-9.4008774E-1,-1.8203725E-1,1.5978777E-1,2.4634464E-1,4.6296915E-1,5.9799975E-1,1.0552686E0,-3.5059538E-1,5.0445404E-2,2.8887916E-1,5.0722E-1,1.4303594E0,1.6300093E0],"categories":[],"categories_nodes":[],"categories_segments":[],"categories_sizes":[],"default_left":[0,0,0,0,0,0,0,0,0,0,0,0,0,0,0,0,0,0,0,0,0,0,0,0,0,0,0,0,0,0,0,0,0,0,0,0,0,0,0,0,0,0,0,0,0,0,0,0,0,0,0,0,0,0,0,0,0,0,0,0,0,0,0,0,0,0,0,0,0,0,0,0,0,0,0,0,0,0,0,0,0,0,0,0,0,0,0,0,0,0,0,0,0,0,0,0,0,0,0,0,0,0,0,0,0,0,0,0,0,0,0,0,0,0,0,0,0,0,0,0,0,0,0,0,0,0,0,0,0,0,0,0,0,0,0,0,0,0,0,0,0,0,0,0,0,0,0,0,0,0,0,0,0,0,0,0,0,0,0,0,0,0,0,0,0,0,0,0,0,0,0,0,0,0,0,0,0,0,0,0,0],"id":2,"left_children":[1,3,5,7,9,11,13,15,17,19,21,23,25,27,29,31,33,35,37,39,41,43,45,47,49,51,-1,53,55,-1,-1,-1,-1,57,59,61,63,65,67,69,71,73,75,77,79,81,-1,83,85,-1,-1,87,89,-1,-1,-1,91,93,95,-1,-1,97,99,-1,101,103,105,107,109,111,113,115,-1,117,-1,119,121,123,125,127,129,-1,131,133,-1,-1,135,-1,-1,137,-1,-1,-1,-1,-1,-1,-1,139,-1,141,143,-1,-1,-1,-1,-1,-1,-1,-1,145,-1,147,149,151,153,155,157,159,-1,161,163,165,-1,-1,-1,-1,167,169,-1,171,173,175,177,-1,-1,-1,179,-1,-1,-1,-1,-1,-1,-1,-1,-1,-1,-1,-1,-1,-1,-1,-1,-1,-1,-1,-1,-1,-1,-1,-1,-1,-1,-1,-1,-1,-1,-1,-1,-1,-1,-1,-1,-1,-1,-1,-1,-1,-1,-1,-1],"loss_changes":[5.8276605E6,1.3418974E6,1.0035585E6,1.3967825E5,1.6099355E5,2.1955362E5,3.29584E5,2.20345E4,2.4180375E4,3.9876438E4,7.08444E4,6.0302E4,6.2860875E4,7.1682E4,4.2894312E4,1.3215625E3,3.91025E3,1.1229875E4,4.585125E3,8.240031E3,6.8217153E3,3.4118094E4,1.8266477E5,3.2644312E4,3.176711E3,2.1656125E4,0E0,5.9580625E3,9.645E3,0E0,0E0,0E0,0E0,3.1111875E3,8.4921875E2,4.6649375E3,1.1770742E3,6.5790625E2,1.1104258E3,6.7740625E3,2.0320333E3,3.902207E2,2.2026753E3,3.796248E3,2.1415287E4,7.6094756E3,0E0,3.1140938E3,4.157E3,0E0,0E0,4.85625E2,1.10120625E4,0E0,0E0,0E0,3.079375E3,4.625625E2,1.4945312E2,0E0,0E0,8.27125E2,3.9503125E2,0E0,1.2868164E2,6.285625E2,9.309448E1,3.0136719E0,1.9345813E2,3.3553281E3,5.499375E2,3.2292212E2,0E0,1.7058691E2,0E0,3.1565775E2,4.2654968E2,5.289922E2,8.621544E2,2.0303156E4,4.976117E3,0E0,8.989189E2,1.6729688E2,0E0,0E0,5.095625E2,0E0,0E0,4.225E2,0E0,0E0,0E0,0E0,0E0,0E0,0E0,1.01159375E3,0E0,2.58125E1,7.596875E1,0E0,0E0,0E0,0E0,0E0,0E0,0E0,0E0,1.2924316E1,0E0,2.5639219E3,2.0763477E2,4.886953E2,2.8221191E1,2.2069824E1,4.873933E1,5.5791016E1,0E0,3.4438477E1,1.14296265E2,1.7069104E2,0E0,0E0,0E0,0E0,1.7931958E2,8.660848E3,0E0,1.8553105E3,1.2419805E3,2.0267073E2,4.0955322E1,0E0,0E0,0E0,5.460625E2,0E0,0E0,0E0,0E0,0E0,0E0,0E0,0E0,0E0,0E0,0E0,0E0,0E0,0E0,0E0,0E0,0E0,0E0,0E0,0E0,0E0,0E0,0E0,0E0,0E0,0E0,0E0,0E0,0E0,0E0,0E0,0E0,0E0,0E0,0E0,0E0,0E0,0E0,0E0,0E0,0E0,0E0,0E0,0E0],"parents":[2147483647,0,0,1,1,2,2,3,3,4,4,5,5,6,6,7,7,8,8,9,9,10,10,11,11,12,12,13,13,14,14,15,15,16,16,17,17,18,18,19,19,20,20,21,21,22,22,23,23,24,24,25,25,27,27,28,28,33,33,34,34,35,35,36,36,37,37,38,38,39,39,40,40,41,41,42,42,43,43,44,44,45,45,47,47,48,48,51,51,52,52,56,56,57,57,58,58,61,61,62,62,64,64,65,65,66,66,67,67,68,68,69,69,70,70,71,71,73,73,75,75,76,76,77,77,78,78,79,79,80,80,82,82,83,83,86,86,89,89,97,97,99,99,100,100,109,109,111,111,112,112,113,113,114,114,115,115,116,116,117,117,119,119,120,120,121,121,126,126,127,127,129,129,130,130,131,131,132,132,136,136],"right_children":[2,4,6,8,10,12,14,16,18,20,22,24,26,28,30,32,34,36,38,40,42,44,46,48,50,52,-1,54,56,-1,-1,-1,-1,58,60,62,64,66,68,70,72,74,76,78,80,82,-1,84,86,-1,-1,88,90,-1,-1,-1,92,94,96,-1,-1,98,100,-1,102,104,106,108,110,112,114,116,-1,118,-1,120,122,124,126,128,130,-1,132,134,-1,-1,136,-1,-1,138,-1,-1,-1,-1,-1,-1,-1,140,-1,142,144,-1,-1,-1,-1,-1,-1,-1,-1,146,-1,148,150,152,154,156,158,160,-1,162,164,166,-1,-1,-1,-1,168,170,-1,172,174,176,178,-1,-1,-1,180,-1,-1,-1,-1,-1,-1,-1,-1,-1,-1,-1,-1,-1,-1,-1,-1,-1,-1,-1,-1,-1,-1,-1,-1,-1,-1,-1,-1,-1,-1,-1,-1,-1,-1,-1,-1,-1,-1,-1,-1,-1,-1,-1,-1],"split_conditions":[3.800386E-1,-5.312623E-1,1.7564938E0,-9.755931E-1,-6.910656E-2,1.1161498E0,4.199857E0,-1.2375417E0,-6.3977474E-1,-2.173873E-1,2.435313E0,3.5864797E0,3.0502508E0,1.9472988E0,6.53346E-1,-1.1793578E0,-6.949183E-1,1.2449073E-2,-4.2370233E-1,9.0232337E-1,-8.137825E-2,-4.4728E-1,2.582196E0,7.013512E-1,-1.2045025E-1,1.3707429E0,7.9831614E0,1.3970248E0,2.1081722E0,1.3592341E1,6.769062E0,-2.4477973E0,-2.144204E0,-9.376498E-1,1.2449073E-2,-8.177465E-1,4.4544366E-1,3.841997E-1,-4.633402E-1,-3.6563545E-1,1.7658627E0,-1.4032541E-1,-1.1544521E-1,-5.6490827E-1,2.58171E-1,-2.3554155E-1,7.4434867E0,5.492598E-1,8.428634E-1,7.2839637E0,2.937102E0,1.097262E0,1.8392193E0,2.825841E0,3.5362911E0,3.7980614E0,2.4474258E0,2.7214798E-1,-7.3213553E-1,-1.7563345E0,-8.2066554E-1,-4.499426E-1,-6.652015E-1,-1.0981096E0,8.25156E-1,-5.287636E-1,6.2442905E-1,-5.385607E-1,-6.318927E-2,-2.6986957E-1,-8.547445E-2,1.3125045E0,8.541792E-1,2.1805832E-1,-2.6178458E-1,-2.2088829E-1,5.0890666E-2,-9.342507E-1,-2.1338293E-1,1.8923212E0,4.7916573E-1,2.53709E0,1.09346226E-1,4.291011E-1,1.0563477E0,1.2551664E0,-8.833407E-1,1.8799975E0,2.177683E0,1.1279323E0,3.4232152E0,4.400045E0,5.3208857E0,-2.084183E0,-9.099308E-1,-1.8105696E0,-1.2888545E0,-7.3213553E-1,-1.5294154E0,-2.564837E-1,-5.8439255E-1,-7.205043E-1,-3.2316598E-1,-1.1970925E0,-1.0095935E0,-7.8847784E-1,-3.0841216E-1,-8.152108E-1,-6.014747E-1,-1.4032541E-1,5.3908825E-2,-1.32226E0,-1.9583212E-1,-3.0966854E-1,2.125121E-2,1.1549546E0,1.4645426E0,-1.7269437E-1,-5.1821675E-2,-4.2937207E-1,-4.886439E-2,1.1630555E-2,6.00767E-1,-2.0138004E0,-1.1915004E0,1.2106848E-1,-5.887531E-1,1.1630555E-2,3.5728416E0,1.943837E-1,6.574143E-1,-7.163558E-2,5.3619164E-1,7.5386184E-1,8.6716187E-1,2.4922504E0,9.747706E-1,2.2788742E0,2.5847778E0,-1.8038914E0,-1.3855432E0,-1.463869E0,-7.194852E-1,-1.2797766E0,-7.926447E-1,-4.1012773E-1,-1.7533694E-1,3.951203E-1,-9.6393013E-1,-6.181788E-1,-3.7320927E-1,-7.058286E-1,-5.6539744E-1,-3.3501709E-1,-1.1129675E-1,-3.181893E-1,-1.6819839E-1,-5.1968455E-2,1.5184832E-1,-4.2924652E-1,-3.4604403E-1,-3.0881378E-1,-1.3931893E-1,8.758909E-3,-1.7009205E-1,-1.2050199E-2,2.5023007E-1,-3.174778E-1,-9.4008774E-1,-1.8203725E-1,1.5978777E-1,2.4634464E-1,4.6296915E-1,5.9799975E-1,1.0552686E0,-3.5059538E-1,5.0445404E-2,2.8887916E-1,5.0722E-1,1.4303594E0,1.6300093E0],"split_indices":[1,22,1,22,22,1,17,22,1,1,8,24,22,24,33,3,3,3,1,3,1,25,24,1,3,1,0,24,1,0,0,0,0,1,3,25,3,3,24,1,3,1,24,1,25,18,0,1,1,0,0,24,25,0,0,0,24,2,1,0,0,3,25,0,3,1,3,24,1,25,25,3,0,23,0,24,24,25,26,22,25,0,1,1,0,0,21,0,0,24,0,0,0,0,0,0,0,1,0,24,22,0,0,0,0,0,0,0,0,1,0,19,25,1,25,3,3,1,0,28,17,1,0,0,0,0,17,1,0,1,25,9,37,0,0,0,1,0,0,0,0,0,0,0,0,0,0,0,0,0,0,0,0,0,0,0,0,0,0,0,0,0,0,0,0,0,0,0,0,0,0,0,0,0,0,0,0,0,0,0,0],"split_type":[0,0,0,0,0,0,0,0,0,0,0,0,0,0,0,0,0,0,0,0,0,0,0,0,0,0,0,0,0,0,0,0,0,0,0,0,0,0,0,0,0,0,0,0,0,0,0,0,0,0,0,0,0,0,0,0,0,0,0,0,0,0,0,0,0,0,0,0,0,0,0,0,0,0,0,0,0,0,0,0,0,0,0,0,0,0,0,0,0,0,0,0,0,0,0,0,0,0,0,0,0,0,0,0,0,0,0,0,0,0,0,0,0,0,0,0,0,0,0,0,0,0,0,0,0,0,0,0,0,0,0,0,0,0,0,0,0,0,0,0,0,0,0,0,0,0,0,0,0,0,0,0,0,0,0,0,0,0,0,0,0,0,0,0,0,0,0,0,0,0,0,0,0,0,0,0,0,0,0,0,0],"sum_hessian":[7.945E3,5.534E3,2.411E3,2.735E3,2.799E3,1.992E3,4.19E2,1.4E3,1.335E3,1.369E3,1.43E3,1.331E3,6.61E2,4.02E2,1.7E1,4.35E2,9.65E2,8.86E2,4.49E2,8.59E2,5.1E2,1.376E3,5.4E1,1.325E3,6E0,6.57E2,4E0,2.06E2,1.96E2,9E0,8E0,2.94E2,1.41E2,6.36E2,3.29E2,7.7E2,1.16E2,3.58E2,9.1E1,8.1E2,4.9E1,2.85E2,2.25E2,3.6E1,1.34E3,4.3E1,1.1E1,7.09E2,6.16E2,3E0,3E0,3.23E2,3.34E2,8.5E1,1.21E2,4.9E1,1.47E2,4.47E2,1.89E2,3.24E2,5E0,4.2E2,3.5E2,9.1E1,2.5E1,3.4E2,1.8E1,7.5E1,1.6E1,4.55E2,3.55E2,4.5E1,4E0,1.77E2,1.08E2,1.62E2,6.3E1,2.3E1,1.3E1,7.46E2,5.94E2,3E0,4E1,4.01E2,3.08E2,2.43E2,3.73E2,2.51E2,7.2E1,2.96E2,3.8E1,7.2E1,7.5E1,4.44E2,3E0,1.76E2,1.3E1,2.69E2,1.51E2,2.54E2,9.6E1,2E1,5E0,2.1E2,1.3E2,1.5E1,3E0,5.9E1,1.6E1,1.3E1,3E0,4.06E2,4.9E1,3.38E2,1.7E1,3.2E1,1.3E1,1.73E2,4E0,7E1,9.2E1,5.5E1,8E0,1.3E1,1E1,3E0,1E1,7.43E2,3E0,4.26E2,1.68E2,1.7E1,2.3E1,1.25E2,2.76E2,3E0,3.7E2,1.58E2,1.38E2,2.33E2,3.6E1,2.51E2,3E0,8.9E1,7E0,1E1,3E0,3E0,4.03E2,2.3E1,2.6E1,1.35E2,2.03E2,1.4E1,3E0,2.5E1,7E0,1E1,3E0,1E2,7.3E1,3E0,6.7E1,8.3E1,9E0,7E0,4.8E1,3E0,7E0,3.45E2,3.98E2,2.63E2,1.63E2,1.5E2,1.8E1,3E0,1.4E1,9E0,1.4E1,1.91E2,1.79E2],"tree_param":{"num_deleted":"0","num_feature":"38","num_nodes":"181","size_leaf_vector":"1"}},{"base_weights":[8.551501E-4,-1.7618217E1,3.9110935E1,-3.239239E1,-2.9552677E0,3.0048899E1,9.087221E1,-3.8867775E1,-2.5116327E1,-3.6083376E0,1.3552196E2,2.16061E1,4.3011852E1,8.270166E1,1.0243898E1,-4.421074E1,-3.5936386E1,-2.8082188E1,-1.9566977E1,-1.1135183E1,3.636744E0,3.3505542E0,7.4687057E0,1.7772493E1,2.6525763E1,3.8344833E1,5.3131813E1,7.644347E1,5.6545334E0,-2.296553E0,-1.9526821E0,-3.7605175E1,-3.2761997E1,-2.943571E1,-1.9539536E1,-2.1624603E1,-1.484597E1,-1.4855771E1,-4.8604345E0,-4.0779388E-1,6.572396E0,1.548695E1,1.9695074E1,1.1910152E0,1.4326599E0,3.6728115E1,2.3924387E0,2.5248694E0,3.5481813E0,3.2974153E0,4.188927E0,-3.9310177E1,-3.4218853E1,-1.66128E0,-1.1108614E0,-3.1406403E1,-2.5924496E1,-1.0748861E0,-1.4482069E1,-2.1851927E1,-7.041321E-1,-1.6150791E1,-6.144271E0,-3.2359238E1,-1.401628E1,-6.6210856E0,1.1258701E1,-8.432096E-1,1.0891969E1,7.814045E0,-8.593613E0,7.310288E-1,8.22292E-1,9.216997E-1,1.0421401E0,1.6872534E0,1.959958E0,-1.9716654E0,-8.6463034E-1,-1.7379478E0,-1.2715077E0,-3.2113846E1,-1.326919E0,-2.6161373E1,-1.5015007E1,-7.6063776E-1,-2.4166937E-1,-1.1601938E0,-1.0196599E0,-8.303966E-1,-5.7189965E-1,-3.939848E-1,3.1897202E-2,-3.625796E1,4.9222022E-1,-1.5963398E1,-9.352903E0,-7.852027E0,-3.3446443E0,7.5878043E0,1.0561482E0,-2.6746564E0,9.0958774E-1,7.0109987E0,1.5718815E1,5.703969E0,1.0437721E1,-1.34104805E1,7.73896E-1,-1.6812044E0,-1.4774364E0,-1.3506565E0,-1.1213803E0,-1.0170155E-1,-1.1198393E0,-1.8879746E0,-9.8484415E-1,-8.3755237E-1,-1.09879784E-1,-5.3338784E-1,-2.994254E-1,-4.0122756E-1,4.1074237E-1,-1.9742219E-1,3.742007E-1,1.5892147E-1,4.6332484E-1,-1.4040492E-1,3.6007547E-1,1.0785762E-2,9.955552E-2,1.6025925E-1,3.878784E-1,9.031543E-1,4.1363525E-1,2.363644E-1,3.582024E-1,4.6720043E-1,5.8585244E-1,-5.7070047E-1,-1.4512167E0,-1.0528278E-1,5.492751E-1],"categories":[],"categories_nodes":[],"categories_segments":[],"categories_sizes":[],"default_left":[0,0,0,0,0,0,0,0,0,0,0,0,0,0,0,0,0,0,0,0,0,0,0,0,0,0,0,0,0,0,0,0,0,0,0,0,0,0,0,0,0,0,0,0,0,0,0,0,0,0,0,0,0,0,0,0,0,0,0,0,0,0,0,0,0,0,0,0,0,0,0,0,0,0,0,0,0,0,0,0,0,0,0,0,0,0,0,0,0,0,0,0,0,0,0,0,0,0,0,0,0,0,0,0,0,0,0,0,0,0,0,0,0,0,0,0,0,0,0,0,0,0,0,0,0,0,0,0,0,0,0,0,0,0,0,0,0,0,0,0,0,0,0],"id":3,"left_children":[1,3,5,7,9,11,13,15,17,19,21,23,25,27,-1,29,31,33,35,37,39,-1,-1,41,43,45,47,49,-1,-1,-1,51,53,55,57,59,61,63,65,67,69,71,73,-1,-1,75,-1,-1,-1,-1,-1,77,79,-1,-1,81,83,-1,85,87,-1,89,91,93,95,97,99,101,103,105,107,-1,-1,-1,-1,-1,-1,-1,-1,-1,-1,109,-1,111,113,-1,-1,-1,-1,-1,-1,-1,-1,115,-1,117,119,121,123,125,-1,127,129,131,133,135,137,139,141,-1,-1,-1,-1,-1,-1,-1,-1,-1,-1,-1,-1,-1,-1,-1,-1,-1,-1,-1,-1,-1,-1,-1,-1,-1,-1,-1,-1,-1,-1,-1,-1,-1,-1],"loss_changes":[5.502331E6,1.1924688E6,1.1605448E6,1.2821375E5,2.5045228E5,2.3021538E5,3.26776E5,2.1106E4,2.0748E4,1.5011425E5,2.3275781E3,2.3688312E4,3.7258125E4,5.715725E4,0E0,2.7219375E3,3.75275E3,9.1490625E3,4.0891406E3,3.1444547E4,1.6660998E4,0E0,0E0,2.8719375E3,2.5349062E3,7.046875E3,8.6304375E3,1.6799875E4,0E0,0E0,0E0,2.1768125E3,8.8484375E2,4.1955625E3,8.5727344E2,2.3060938E2,1.5016992E3,1.1992266E4,1.4378155E4,2.9169604E3,1.5376645E4,3.7851562E1,1.788125E2,0E0,0E0,2.3185625E3,0E0,0E0,0E0,0E0,0E0,3.998125E2,1.22375E2,0E0,0E0,7.284375E2,2.9459375E2,0E0,1.8027637E2,1.24359375E2,0E0,7.287891E1,2.404273E2,6.6094688E3,7.2056094E3,1.8088027E3,1.6502588E3,1.8322212E3,3.0191772E2,4.1036523E3,2.8079458E3,0E0,0E0,0E0,0E0,0E0,0E0,0E0,0E0,0E0,0E0,5.405625E2,0E0,2.1784375E2,7.2102576E2,0E0,0E0,0E0,0E0,0E0,0E0,0E0,0E0,1.2659766E2,0E0,6.1434688E3,1.00222656E3,9.8065625E2,8.533812E2,2.5182227E2,0E0,3.8791565E2,2.1869861E2,1.4913879E1,7.6708984E0,5.636406E2,3.5785156E2,9.4679346E2,6.700384E2,0E0,0E0,0E0,0E0,0E0,0E0,0E0,0E0,0E0,0E0,0E0,0E0,0E0,0E0,0E0,0E0,0E0,0E0,0E0,0E0,0E0,0E0,0E0,0E0,0E0,0E0,0E0,0E0,0E0,0E0,0E0,0E0,0E0,0E0],"parents":[2147483647,0,0,1,1,2,2,3,3,4,4,5,5,6,6,7,7,8,8,9,9,10,10,11,11,12,12,13,13,15,15,16,16,17,17,18,18,19,19,20,20,23,23,24,24,25,25,26,26,27,27,31,31,32,32,33,33,34,34,35,35,36,36,37,37,38,38,39,39,40,40,41,41,42,42,45,45,51,51,52,52,55,55,56,56,58,58,59,59,61,61,62,62,63,63,64,64,65,65,66,66,67,67,68,68,69,69,70,70,81,81,83,83,84,84,93,93,95,95,96,96,97,97,98,98,99,99,101,101,102,102,103,103,104,104,105,105,106,106,107,107,108,108],"right_children":[2,4,6,8,10,12,14,16,18,20,22,24,26,28,-1,30,32,34,36,38,40,-1,-1,42,44,46,48,50,-1,-1,-1,52,54,56,58,60,62,64,66,68,70,72,74,-1,-1,76,-1,-1,-1,-1,-1,78,80,-1,-1,82,84,-1,86,88,-1,90,92,94,96,98,100,102,104,106,108,-1,-1,-1,-1,-1,-1,-1,-1,-1,-1,110,-1,112,114,-1,-1,-1,-1,-1,-1,-1,-1,116,-1,118,120,122,124,126,-1,128,130,132,134,136,138,140,142,-1,-1,-1,-1,-1,-1,-1,-1,-1,-1,-1,-1,-1,-1,-1,-1,-1,-1,-1,-1,-1,-1,-1,-1,-1,-1,-1,-1,-1,-1,-1,-1,-1,-1],"split_conditions":[3.800386E-1,-5.312623E-1,1.8371159E0,-9.6689594E-1,1.4687076E0,1.0634141E0,3.3044407E0,-1.2148945E0,-6.3977474E-1,-1.015903E-1,2.7529473E0,7.013512E-1,1.5599892E0,2.5808518E0,1.0243898E1,-1.0930039E0,-6.67481E-1,1.2449073E-2,-4.7340122E-1,-1.7851016E-1,9.739347E-2,3.3505542E0,7.4687057E0,5.225172E-1,8.428634E-1,1.5740542E0,2.284632E0,2.1035693E0,5.6545334E0,-2.296553E0,-1.9526821E0,-9.47378E-1,-8.573525E-1,-7.8058815E-1,3.543433E-1,3.621519E-1,-4.7520533E-1,-7.21917E-1,1.9055945E-1,3.0538732E-1,3.5830727E-1,4.5070517E-1,6.081141E-1,1.1910152E0,1.4326599E0,1.2533962E0,2.3924387E0,2.5248694E0,3.5481813E0,3.2974153E0,4.188927E0,2.5852302E-1,-7.3213553E-1,-1.66128E0,-1.1108614E0,-7.3213553E-1,3.8903293E-1,-1.0748861E0,8.25156E-1,-5.6490827E-1,-7.041321E-1,-5.264717E-1,-2.726024E-1,-3.2897055E-1,-3.1752747E-1,-2.4568181E-2,5.1157457E-1,-9.43897E-3,3.5938632E-1,2.2787158E-1,-1.0598855E-2,7.310288E-1,8.22292E-1,9.216997E-1,1.0421401E0,1.6872534E0,1.959958E0,-1.9716654E0,-8.6463034E-1,-1.7379478E0,-1.2715077E0,-4.499426E-1,-1.326919E0,-6.3055754E-1,-7.670695E-1,-7.6063776E-1,-2.4166937E-1,-1.1601938E0,-1.0196599E0,-8.303966E-1,-5.7189965E-1,-3.939848E-1,3.1897202E-2,-7.3213553E-1,4.9222022E-1,8.545531E-1,-1.9714928E-1,5.4154766E-1,1.4645426E0,1.7338096E-1,1.0561482E0,6.5965855E-1,5.4800488E-2,-5.4906122E-2,3.65958E-1,1.75272E-1,2.9979494E-1,1.0726023E0,1.4645426E0,-1.6812044E0,-1.4774364E0,-1.3506565E0,-1.1213803E0,-1.0170155E-1,-1.1198393E0,-1.8879746E0,-9.8484415E-1,-8.3755237E-1,-1.09879784E-1,-5.3338784E-1,-2.994254E-1,-4.0122756E-1,4.1074237E-1,-1.9742219E-1,3.742007E-1,1.5892147E-1,4.6332484E-1,-1.4040492E-1,3.6007547E-1,1.0785762E-2,9.955552E-2,1.6025925E-1,3.878784E-1,9.031543E-1,4.1363525E-1,2.363644E-1,3.582024E-1,4.6720043E-1,5.8585244E-1,-5.7070047E-1,-1.4512167E0,-1.0528278E-1,5.492751E-1],"split_indices":[1,22,0,22,0,1,0,22,1,1,0,1,1,0,0,3,3,3,1,25,1,0,0,1,1,0,1,0,0,0,0,1,24,25,3,3,24,25,25,25,1,1,1,0,0,1,0,0,0,0,0,2,1,0,0,1,23,0,3,1,0,24,24,0,1,25,25,1,17,1,25,0,0,0,0,0,0,0,0,0,0,3,0,25,17,0,0,0,0,0,0,0,0,1,0,3,1,0,3,22,0,0,1,1,30,1,1,18,3,0,0,0,0,0,0,0,0,0,0,0,0,0,0,0,0,0,0,0,0,0,0,0,0,0,0,0,0,0,0,0,0,0,0],"split_type":[0,0,0,0,0,0,0,0,0,0,0,0,0,0,0,0,0,0,0,0,0,0,0,0,0,0,0,0,0,0,0,0,0,0,0,0,0,0,0,0,0,0,0,0,0,0,0,0,0,0,0,0,0,0,0,0,0,0,0,0,0,0,0,0,0,0,0,0,0,0,0,0,0,0,0,0,0,0,0,0,0,0,0,0,0,0,0,0,0,0,0,0,0,0,0,0,0,0,0,0,0,0,0,0,0,0,0,0,0,0,0,0,0,0,0,0,0,0,0,0,0,0,0,0,0,0,0,0,0,0,0,0,0,0,0,0,0,0,0,0,0,0,0],"sum_hessian":[7.983E3,5.504E3,2.479E3,2.741E3,2.763E3,2.111E3,3.68E2,1.448E3,1.293E3,2.751E3,1.2E1,1.28E3,8.31E2,3.45E2,2.3E1,5.08E2,9.4E2,8.4E2,4.53E2,1.349E3,1.402E3,3E0,9E0,7.22E2,5.58E2,5.72E2,2.59E2,2.89E2,5.6E1,3.75E2,1.33E2,6.09E2,3.31E2,7.23E2,1.17E2,3.13E2,1.4E2,8.46E2,5.03E2,5.9E2,8.12E2,3.34E2,3.88E2,2.51E2,3.07E2,4.93E2,7.9E1,2.29E2,3E1,1.23E2,1.66E2,3.98E2,2.11E2,3.15E2,1.6E1,4.58E2,2.65E2,8.2E1,3.5E1,3.02E2,1.1E1,1.21E2,1.9E1,3.7E1,8.09E2,4.54E2,4.9E1,5.69E2,2.1E1,7.51E2,6.1E1,1.84E2,1.5E2,1.93E2,1.95E2,2.3E2,2.63E2,3.95E2,3E0,1.96E2,1.5E1,3.95E2,6.3E1,2.58E2,7E0,3.2E1,3E0,1.49E2,1.53E2,1.08E2,1.3E1,1.5E1,4E0,3.4E1,3E0,5.69E2,2.4E2,3.29E2,1.25E2,3.7E1,1.2E1,2.78E2,2.91E2,1.3E1,8E0,4.18E2,3.33E2,4E1,2.1E1,2.41E2,1.54E2,2.05E2,5.3E1,3E0,4E0,3E1,4E0,5.38E2,3.1E1,1.71E2,6.9E1,3.26E2,3E0,1.19E2,6E0,1.1E1,2.6E1,2.75E2,3E0,1.78E2,1.13E2,3E0,1E1,5E0,3E0,2.53E2,1.65E2,1.84E2,1.49E2,3.7E1,3E0,1.7E1,4E0],"tree_param":{"num_deleted":"0","num_feature":"38","num_nodes":"143","size_leaf_vector":"1"}},{"base_weights":[-6.574554E-2,-1.6734617E1,3.7087063E1,-3.0744823E1,-2.995185E0,2.895291E1,9.038044E1,-3.6805504E1,-2.388547E1,-3.6150308E0,1.2940541E2,2.0995506E1,4.240523E1,8.119664E1,2.0294281E2,-4.0634987E1,-3.3202362E1,-2.646012E1,-1.82182E1,-1.0650432E1,3.428055E0,3.2249086E0,7.1213884E0,1.6833046E1,2.5775074E1,3.6761795E1,5.0530487E1,7.419314E1,5.3668113E0,1.2675128E1,7.7853394E0,-2.2052546E0,-3.8680496E1,-3.350184E1,-1.244415E0,-2.8480593E1,-2.3517689E1,-1.9649302E1,-1.2532464E1,-1.4105847E1,-4.4537044E0,9.929214E-1,7.836942E0,1.4780171E1,1.8637642E1,2.3503332E1,1.4326811E0,3.5155434E1,2.3079686E0,4.77962E1,3.1804826E0,3.3085802E0,4.0867047E0,-1.9453005E0,-1.303079E0,-3.3616478E1,-1.698983E1,-2.9119083E1,-2.3506296E1,-2.4299328E1,-1.9065166E1,-1.039715E0,-8.7654734E-1,-1.3345064E1,-1.6874248E0,-1.4294928E1,1.5674542E0,-6.293882E0,1.0182946E1,1.7556304E0,-1.0673779E1,6.382959E0,1.1215821E1,6.798192E-1,7.7010053E-1,8.6671734E-1,9.816753E-1,1.1604539E0,1.6134825E0,1.6541191E0,1.8855952E0,2.2503967E0,2.603565E0,-1.7391227E0,-1.6065582E0,-1.1057867E0,-3.8082334E-1,-2.6585184E1,-2.9980364E1,-1.1967635E0,-5.5439425E-1,-1.2247763E0,-1.2419529E1,-9.7943985E-1,-5.5874825E-1,-7.1055114E-1,-4.700931E-1,-1.983407E-1,5.0691035E-2,-3.2326286E1,-1.3516261E1,-7.552671E0,-3.6276977E0,3.7341528E0,1.4245868E1,-9.025644E-1,6.3973904E0,-1.4864181E0,-9.002776E0,5.321417E0,9.310799E0,1.5816618E1,1.057318E1,-7.314931E-1,-1.343089E0,-1.6060251E0,-1.4180794E0,-1.0274006E0,-5.9308242E-2,-1.741429E0,-1.8003988E-1,-7.457709E-1,-4.362846E-1,-4.0729752E-1,-2.798114E-1,-4.359385E-2,-2.5647897E-1,1.6334916E-2,2.764841E-1,5.546873E-1,1.088456E0,-1.22042716E-1,3.9173294E-2,2.0811163E-1,4.1663805E-1,-5.772541E-1,-1.7796247E-1,2.1246123E-1,3.1927392E-1,3.8079154E-1,5.050511E-1,8.6891043E-1,3.3936492E-1,4.6031505E-1,5.880925E-1],"categories":[],"categories_nodes":[],"categories_segments":[],"categories_sizes":[],"default_left":[0,0,0,0,0,0,0,0,0,0,0,0,0,0,0,0,0,0,0,0,0,0,0,0,0,0,0,0,0,0,0,0,0,0,0,0,0,0,0,0,0,0,0,0,0,0,0,0,0,0,0,0,0,0,0,0,0,0,0,0,0,0,0,0,0,0,0,0,0,0,0,0,0,0,0,0,0,0,0,0,0,0,0,0,0,0,0,0,0,0,0,0,0,0,0,0,0,0,0,0,0,0,0,0,0,0,0,0,0,0,0,0,0,0,0,0,0,0,0,0,0,0,0,0,0,0,0,0,0,0,0,0,0,0,0,0,0,0,0,0,0,0,0,0,0],"id":4,"left_children":[1,3,5,7,9,11,13,15,17,19,21,23,25,27,29,31,33,35,37,39,41,-1,-1,43,45,47,49,51,-1,-1,-1,-1,53,55,-1,57,59,61,63,65,67,69,71,73,75,77,-1,79,-1,81,-1,-1,-1,-1,-1,83,85,87,89,91,93,-1,-1,95,97,99,-1,101,103,105,107,109,111,-1,-1,-1,-1,-1,-1,-1,-1,-1,-1,-1,-1,-1,-1,113,115,-1,-1,-1,117,-1,-1,-1,-1,-1,-1,119,121,123,125,127,129,131,133,-1,135,137,139,141,143,-1,-1,-1,-1,-1,-1,-1,-1,-1,-1,-1,-1,-1,-1,-1,-1,-1,-1,-1,-1,-1,-1,-1,-1,-1,-1,-1,-1,-1,-1,-1,-1],"loss_changes":[4.9450755E6,1.0609255E6,1.0694198E6,1.1257175E5,2.28945E5,2.2893638E5,3.2155825E5,1.861675E4,1.82385E4,1.373917E5,1.8018438E3,2.6443938E4,3.468825E4,4.7689E4,1.7845812E4,3.02125E3,1.036125E3,4.5619375E3,3.0410312E3,2.9635984E4,1.4872631E4,0E0,0E0,2.4103594E3,3.4266875E3,5.5326875E3,8.5466875E3,9.290625E3,0E0,0E0,0E0,0E0,2.78E2,7.955E2,0E0,9.575E2,8.0353125E2,4.1404688E2,7.177461E2,8.0973438E3,1.3477242E4,7.973817E3,2.3504375E3,4.3820312E1,1.5546875E2,1.6935938E2,0E0,9.2E2,0E0,8.986875E2,0E0,0E0,0E0,0E0,0E0,1.22375E2,1.6788525E2,1.9375E2,7.555078E1,4.0901562E2,2.4857422E1,0E0,0E0,1.3273242E2,4.712197E1,1.2016922E4,0E0,1.4593809E3,1.4140562E3,1.0370285E4,1.4835762E3,1.0289385E3,2.6739648E2,0E0,0E0,0E0,0E0,0E0,0E0,0E0,0E0,0E0,0E0,0E0,0E0,0E0,0E0,1.7054688E1,2.3571875E2,0E0,0E0,0E0,6.147981E2,0E0,0E0,0E0,0E0,0E0,0E0,2.462254E3,5.5806094E3,3.026289E2,5.915316E2,1.3891168E2,5.647822E2,1.3894901E3,1.2890293E3,0E0,6.78542E2,2.6607227E2,4.4958008E1,1.0765039E2,1.061875E2,0E0,0E0,0E0,0E0,0E0,0E0,0E0,0E0,0E0,0E0,0E0,0E0,0E0,0E0,0E0,0E0,0E0,0E0,0E0,0E0,0E0,0E0,0E0,0E0,0E0,0E0,0E0,0E0,0E0,0E0,0E0,0E0],"parents":[2147483647,0,0,1,1,2,2,3,3,4,4,5,5,6,6,7,7,8,8,9,9,10,10,11,11,12,12,13,13,14,14,15,15,16,16,17,17,18,18,19,19,20,20,23,23,24,24,25,25,26,26,27,27,32,32,33,33,35,35,36,36,37,37,38,38,39,39,40,40,41,41,42,42,43,43,44,44,45,45,47,47,49,49,55,55,56,56,57,57,58,58,59,59,60,60,63,63,64,64,65,65,67,67,68,68,69,69,70,70,71,71,72,72,87,87,88,88,92,92,99,99,100,100,101,101,102,102,103,103,104,104,105,105,106,106,108,108,109,109,110,110,111,111,112,112],"right_children":[2,4,6,8,10,12,14,16,18,20,22,24,26,28,30,32,34,36,38,40,42,-1,-1,44,46,48,50,52,-1,-1,-1,-1,54,56,-1,58,60,62,64,66,68,70,72,74,76,78,-1,80,-1,82,-1,-1,-1,-1,-1,84,86,88,90,92,94,-1,-1,96,98,100,-1,102,104,106,108,110,112,-1,-1,-1,-1,-1,-1,-1,-1,-1,-1,-1,-1,-1,-1,114,116,-1,-1,-1,118,-1,-1,-1,-1,-1,-1,120,122,124,126,128,130,132,134,-1,136,138,140,142,144,-1,-1,-1,-1,-1,-1,-1,-1,-1,-1,-1,-1,-1,-1,-1,-1,-1,-1,-1,-1,-1,-1,-1,-1,-1,-1,-1,-1,-1,-1,-1,-1],"split_conditions":[3.800386E-1,-5.312623E-1,1.9110478E0,-9.6689594E-1,1.757614E0,1.1161498E0,3.3044407E0,-1.1585782E0,-6.183934E-1,-1.015903E-1,2.7529473E0,7.013512E-1,1.5185311E0,2.5808518E0,6.21806E-1,-1.2596481E0,-7.3213553E-1,-7.8058815E-1,-4.1320258E-1,-1.7851016E-1,2.8834474E-1,3.2249086E0,7.1213884E0,5.225172E-1,9.0544033E-1,1.5740542E0,2.1081722E0,2.1717353E0,5.3668113E0,1.2675128E1,7.7853394E0,-2.2052546E0,1.4484079E-1,6.1009973E-1,-1.244415E0,-7.018824E-1,-5.9842813E-1,-5.1153845E-1,-3.9729834E-1,7.434227E-1,1.2769748E-1,3.5830727E-1,4.7916573E-1,4.291011E-1,5.946792E-1,1.3191328E0,1.4326811E0,1.2960474E0,2.3079686E0,1.6788508E0,3.1804826E0,3.3085802E0,4.0867047E0,-1.9453005E0,-1.303079E0,-1.0239338E0,-9.0795374E-1,-9.6950483E-1,-6.390786E-1,5.701177E-1,-2.1707223E-1,-1.039715E0,-8.7654734E-1,-4.9804014E-1,-6.318927E-2,-7.3253363E-1,1.5674542E0,-3.1552844E-2,2.571666E-1,8.784115E-2,-3.805066E-1,2.2787158E-1,2.2787158E-1,6.798192E-1,7.7010053E-1,8.6671734E-1,9.816753E-1,1.1604539E0,1.6134825E0,1.6541191E0,1.8855952E0,2.2503967E0,2.603565E0,-1.7391227E0,-1.6065582E0,-1.1057867E0,-3.8082334E-1,-1.0630281E0,-8.9038706E-1,-1.1967635E0,-5.5439425E-1,-1.2247763E0,-1.0574436E0,-9.7943985E-1,-5.5874825E-1,-7.1055114E-1,-4.700931E-1,-1.983407E-1,5.0691035E-2,-4.6143973E-1,-3.0075967E-1,-1.7269437E-1,-1.7269437E-1,-6.501026E-1,5.381456E-1,-9.43897E-3,1.8448846E-1,-1.4864181E0,-4.719849E-2,3.6294094E-1,2.6269048E-1,5.7547307E-1,3.0991292E-1,-7.314931E-1,-1.343089E0,-1.6060251E0,-1.4180794E0,-1.0274006E0,-5.9308242E-2,-1.741429E0,-1.8003988E-1,-7.457709E-1,-4.362846E-1,-4.0729752E-1,-2.798114E-1,-4.359385E-2,-2.5647897E-1,1.6334916E-2,2.764841E-1,5.546873E-1,1.088456E0,-1.22042716E-1,3.9173294E-2,2.0811163E-1,4.1663805E-1,-5.772541E-1,-1.7796247E-1,2.1246123E-1,3.1927392E-1,3.8079154E-1,5.050511E-1,8.6891043E-1,3.3936492E-1,4.6031505E-1,5.880925E-1],"split_indices":[1,22,0,22,0,1,0,22,1,1,0,1,1,0,37,24,1,25,1,25,25,0,0,1,1,0,1,0,0,0,0,0,23,23,0,1,25,1,24,0,25,1,25,1,1,0,0,1,0,0,0,0,0,0,0,25,2,18,24,23,23,0,0,24,1,25,0,25,22,1,25,1,1,0,0,0,0,0,0,0,0,0,0,0,0,0,0,5,25,0,0,0,0,0,0,0,0,0,0,0,1,1,1,2,22,1,1,0,25,25,1,18,1,0,0,0,0,0,0,0,0,0,0,0,0,0,0,0,0,0,0,0,0,0,0,0,0,0,0,0,0,0,0,0,0],"split_type":[0,0,0,0,0,0,0,0,0,0,0,0,0,0,0,0,0,0,0,0,0,0,0,0,0,0,0,0,0,0,0,0,0,0,0,0,0,0,0,0,0,0,0,0,0,0,0,0,0,0,0,0,0,0,0,0,0,0,0,0,0,0,0,0,0,0,0,0,0,0,0,0,0,0,0,0,0,0,0,0,0,0,0,0,0,0,0,0,0,0,0,0,0,0,0,0,0,0,0,0,0,0,0,0,0,0,0,0,0,0,0,0,0,0,0,0,0,0,0,0,0,0,0,0,0,0,0,0,0,0,0,0,0,0,0,0,0,0,0,0,0,0,0,0,0],"sum_hessian":[7.983E3,5.511E3,2.472E3,2.728E3,2.783E3,2.146E3,3.26E2,1.446E3,1.282E3,2.771E3,1.2E1,1.35E3,7.96E2,3.03E2,2.3E1,6.96E2,7.5E2,8.79E2,4.03E2,1.386E3,1.385E3,3E0,9E0,7.24E2,6.26E2,4.73E2,3.23E2,2.42E2,6.1E1,9E0,1.4E1,2.43E2,4.53E2,7.21E2,2.9E1,5.16E2,3.63E2,3.2E2,8.3E1,8.89E2,4.97E2,8.93E2,4.92E2,3.43E2,3.81E2,3.55E2,2.71E2,4.08E2,6.5E1,2.71E2,5.2E1,1.22E2,1.2E2,4.43E2,1E1,7.15E2,6E0,4.53E2,6.3E1,3.05E2,5.8E1,2.02E2,1.18E2,7.7E1,6E0,8.86E2,3E0,4.42E2,5.5E1,8.39E2,5.4E1,3.46E2,1.46E2,1.26E2,2.17E2,1.73E2,2.08E2,3.47E2,8E0,2.33E2,1.75E2,1.71E2,1E2,3.88E2,3.27E2,3E0,3E0,1.23E2,3.3E2,6E1,3E0,2.99E2,6E0,5.3E1,5E0,6.1E1,1.6E1,3E0,3E0,3.5E1,8.51E2,2.99E2,1.43E2,2.2E1,3.3E1,5.34E2,3.05E2,3E0,5.1E1,2.56E2,9E1,1.5E1,1.31E2,4E0,1.19E2,1.34E2,1.96E2,3E0,3E0,3.2E1,3E0,6.57E2,1.94E2,2.27E2,7.2E1,5.1E1,9.2E1,8E0,1.4E1,2.5E1,8E0,2.79E2,2.55E2,1.43E2,1.62E2,3.4E1,1.7E1,1.3E2,1.26E2,3.2E1,5.8E1,1.2E1,3E0,6.5E1,6.6E1],"tree_param":{"num_deleted":"0","num_feature":"38","num_nodes":"145","size_leaf_vector":"1"}},{"base_weights":[9.484231E-2,-1.5774478E1,3.5153893E1,-2.8241373E1,-1.2088151E0,2.7226522E1,8.198187E1,-3.4276222E1,-2.0770895E1,-2.0216331E0,6.782097E0,2.0023193E1,3.9677387E1,7.4966576E1,9.075595E0,-3.862645E1,-3.1045185E1,-2.3523674E1,-1.4749302E1,-8.373525E0,3.7143037E0,1.6162298E1,2.4749374E1,3.5922596E1,4.950388E1,6.852118E1,5.1006804E0,-4.1263596E1,-3.5322502E1,-3.2574455E1,-2.826619E1,-2.4775778E1,-1.5546112E1,-1.6533945E1,-9.945158E0,-9.46735E0,9.387931E0,1.4959613E0,7.500542E0,1.4062336E1,1.794886E1,2.2665419E1,1.3754997E0,3.4235344E1,2.2368379E0,2.3265264E0,3.3382394E0,2.9826078E0,3.7630646E0,-2.124325E0,-1.8361489E0,-1.8219006E0,-1.5525794E0,-1.7178808E0,-2.9313965E1,-1.4565023E0,-1.1175097E0,-2.7643131E1,-2.256356E1,-1.6800474E1,-9.1982975E0,-1.664406E1,-2.057126E-1,-1.1128929E1,-2.8819046E0,-1.2240078E1,-5.7335567E0,6.3944497E0,1.1010655E0,2.361875E0,-9.771417E0,5.566383E0,9.68067E0,6.4563173E-1,7.312918E-1,8.405677E-1,9.564913E-1,1.0627027E0,1.1855357E0,1.5924381E0,1.8519958E0,-1.5102663E0,-1.1869736E0,-2.8541296E1,-1.11459E0,-2.2644077E1,-3.9825264E-1,-8.9719975E-1,-7.2611207E-1,-5.020218E-1,-1.344016E-1,-1.7573542E1,-7.459326E-1,-5.8929473E-1,-3.972312E-1,-4.253012E0,1.4901124E-1,-1.25999775E1,1.8245529E0,-6.9614334E0,-3.8199365E0,1.8677914E0,9.534803E0,-3.3266257E-2,7.1430736E0,-1.5430758E1,-4.9898396E0,5.158149E0,8.234586E-1,4.1925073E-1,1.0870531E1,-1.4944466E0,-1.2389125E0,-1.2036679E0,-1.0667171E0,-8.929619E-1,-6.5249056E-1,-2.490326E-1,-1.16572194E-1,-1.3906696E0,-5.758824E-1,-3.5478917E-1,2.2596379E-1,-2.0434132E-1,3.4628615E-1,-2.9585395E-2,1.92126E-1,5.439159E-1,7.260043E-2,-6.5937676E-2,1.00672305E-1,2.6343235E-1,4.3684322E-1,-1.4306773E0,-6.2953395E-1,-3.7865862E-1,-1.136406E-1,2.2018337E-1,3.242026E-1,5.487181E-1,2.609849E-1],"categories":[],"categories_nodes":[],"categories_segments":[],"categories_sizes":[],"default_left":[0,0,0,0,0,0,0,0,0,0,0,0,0,0,0,0,0,0,0,0,0,0,0,0,0,0,0,0,0,0,0,0,0,0,0,0,0,0,0,0,0,0,0,0,0,0,0,0,0,0,0,0,0,0,0,0,0,0,0,0,0,0,0,0,0,0,0,0,0,0,0,0,0,0,0,0,0,0,0,0,0,0,0,0,0,0,0,0,0,0,0,0,0,0,0,0,0,0,0,0,0,0,0,0,0,0,0,0,0,0,0,0,0,0,0,0,0,0,0,0,0,0,0,0,0,0,0,0,0,0,0,0,0,0,0,0,0,0,0,0,0],"id":5,"left_children":[1,3,5,7,9,11,13,15,17,19,-1,21,23,25,-1,27,29,31,33,35,37,39,41,43,45,47,-1,49,51,53,55,57,59,61,63,65,67,69,71,73,75,77,-1,79,-1,-1,-1,-1,-1,-1,-1,-1,-1,-1,81,-1,-1,83,85,87,89,91,-1,93,95,97,99,101,-1,103,105,107,109,-1,-1,-1,-1,-1,-1,-1,-1,-1,-1,111,-1,113,-1,-1,-1,-1,-1,115,-1,-1,-1,117,-1,119,-1,121,123,125,127,129,131,133,135,137,-1,-1,139,-1,-1,-1,-1,-1,-1,-1,-1,-1,-1,-1,-1,-1,-1,-1,-1,-1,-1,-1,-1,-1,-1,-1,-1,-1,-1,-1,-1,-1,-1],"loss_changes":[4.445897E6,9.988845E5,9.22113E5,1.3291475E5,2.82588E5,1.9032988E5,2.377565E5,2.182425E4,2.1649562E4,9.199065E4,0E0,2.4270375E4,2.7000875E4,5.1933125E4,0E0,4.5891875E3,3.0953125E3,8.694594E3,3.4279453E3,2.3363531E4,1.1134482E4,2.550125E3,2.86275E3,6.9155E3,7.825125E3,1.200925E4,0E0,5.498125E2,3.6928125E2,2.498625E3,1.101875E3,4.3493438E3,8.487344E2,3.4727344E2,9.3783496E2,1.1618125E4,2.5064312E3,8.199091E3,2.0123027E3,3.659375E1,2.1574219E2,1.3890625E1,0E0,2.0398125E3,0E0,0E0,0E0,0E0,0E0,0E0,0E0,0E0,0E0,0E0,3.7610938E2,0E0,0E0,9.835E2,3.4623438E2,1.0353516E1,9.9109375E1,2.2055469E2,0E0,1.1347168E2,1.573519E2,1.1807078E4,1.1083086E3,8.0667847E2,0E0,8.921068E3,1.5466377E3,1.0811831E3,2.6188867E2,0E0,0E0,0E0,0E0,0E0,0E0,0E0,0E0,0E0,0E0,7.047031E2,0E0,3.1945312E2,0E0,0E0,0E0,0E0,0E0,1.25E1,0E0,0E0,0E0,9.361023E0,0E0,1.0267266E4,0E0,4.84E2,5.76074E2,1.2369473E2,3.5342285E2,1.3707871E3,7.307041E2,6.506206E2,2.214331E2,2.2554004E2,0E0,0E0,1.0777344E1,0E0,0E0,0E0,0E0,0E0,0E0,0E0,0E0,0E0,0E0,0E0,0E0,0E0,0E0,0E0,0E0,0E0,0E0,0E0,0E0,0E0,0E0,0E0,0E0,0E0,0E0,0E0,0E0,0E0,0E0],"parents":[2147483647,0,0,1,1,2,2,3,3,4,4,5,5,6,6,7,7,8,8,9,9,11,11,12,12,13,13,15,15,16,16,17,17,18,18,19,19,20,20,21,21,22,22,23,23,24,24,25,25,27,27,28,28,29,29,30,30,31,31,32,32,33,33,34,34,35,35,36,36,37,37,38,38,39,39,40,40,41,41,43,43,54,54,57,57,58,58,59,59,60,60,61,61,63,63,64,64,65,65,66,66,67,67,69,69,70,70,71,71,72,72,83,83,85,85,91,91,95,95,97,97,99,99,100,100,101,101,102,102,103,103,104,104,105,105,106,106,107,107,110,110],"right_children":[2,4,6,8,10,12,14,16,18,20,-1,22,24,26,-1,28,30,32,34,36,38,40,42,44,46,48,-1,50,52,54,56,58,60,62,64,66,68,70,72,74,76,78,-1,80,-1,-1,-1,-1,-1,-1,-1,-1,-1,-1,82,-1,-1,84,86,88,90,92,-1,94,96,98,100,102,-1,104,106,108,110,-1,-1,-1,-1,-1,-1,-1,-1,-1,-1,112,-1,114,-1,-1,-1,-1,-1,116,-1,-1,-1,118,-1,120,-1,122,124,126,128,130,132,134,136,138,-1,-1,140,-1,-1,-1,-1,-1,-1,-1,-1,-1,-1,-1,-1,-1,-1,-1,-1,-1,-1,-1,-1,-1,-1,-1,-1,-1,-1,-1,-1,-1,-1],"split_conditions":[3.800386E-1,-4.6073768E-1,1.8371159E0,-9.1591847E-1,1.9637287E0,1.1161498E0,3.3044407E0,-1.1585782E0,-5.388497E-1,-8.137825E-2,6.782097E0,7.168954E-1,1.6212962E0,2.5808518E0,9.075595E0,-1.1322E0,-5.697357E-1,1.0354941E-1,-3.7492618E-1,1.2769748E-1,2.8834474E-1,5.225172E-1,9.264399E-1,1.6157498E0,2.284632E0,2.1035693E0,5.1006804E0,-1.120724E0,-8.1005687E-1,-9.106177E-1,-8.6608344E-1,-7.8058815E-1,5.4833347E-1,5.954913E-1,-3.8901514E-1,-1.7851016E-1,5.1360404E-1,3.5830727E-1,2.2787158E-1,4.291011E-1,6.2030816E-1,8.068062E-1,1.3754997E0,1.3195075E0,2.2368379E0,2.3265264E0,3.3382394E0,2.9826078E0,3.7630646E0,-2.124325E0,-1.8361489E0,-1.8219006E0,-1.5525794E0,-1.7178808E0,-7.3213553E-1,-1.4565023E0,-1.1175097E0,-7.018824E-1,-2.9235994E-2,3.4377873E-1,9.3172044E-1,-4.5425984E-1,-2.057126E-1,-4.633402E-1,-9.43897E-3,7.434227E-1,-4.0213827E-2,1.7338096E-1,1.1010655E0,1.2842609E-1,-1.4191052E-1,5.1157457E-1,2.9979494E-1,6.4563173E-1,7.312918E-1,8.405677E-1,9.564913E-1,1.0627027E0,1.1855357E0,1.5924381E0,1.8519958E0,-1.5102663E0,-1.1869736E0,-3.176557E-1,-1.11459E0,-6.652015E-1,-3.9825264E-1,-8.9719975E-1,-7.2611207E-1,-5.020218E-1,-1.344016E-1,4.2829534E-1,-7.459326E-1,-5.8929473E-1,-3.972312E-1,-1.10629104E-1,1.4901124E-1,-6.3055754E-1,1.8245529E0,4.6167648E-1,1.4645426E0,7.3234305E-2,5.1323926E-1,3.410323E-2,2.1220678E-1,-3.805066E-1,-1.0598855E-2,3.864094E-1,8.234586E-1,4.1925073E-1,2.0189312E0,-1.4944466E0,-1.2389125E0,-1.2036679E0,-1.0667171E0,-8.929619E-1,-6.5249056E-1,-2.490326E-1,-1.16572194E-1,-1.3906696E0,-5.758824E-1,-3.5478917E-1,2.2596379E-1,-2.0434132E-1,3.4628615E-1,-2.9585395E-2,1.92126E-1,5.439159E-1,7.260043E-2,-6.5937676E-2,1.00672305E-1,2.6343235E-1,4.3684322E-1,-1.4306773E0,-6.2953395E-1,-3.7865862E-1,-1.136406E-1,2.2018337E-1,3.242026E-1,5.487181E-1,2.609849E-1],"split_indices":[1,22,0,22,0,1,0,22,1,1,0,1,1,0,0,3,3,3,1,25,25,1,1,0,1,0,0,1,3,1,24,25,3,3,24,25,22,1,1,1,1,1,0,1,0,0,0,0,0,0,0,0,0,0,1,0,0,1,0,3,3,1,0,24,1,0,25,22,0,1,25,25,1,0,0,0,0,0,0,0,0,0,0,3,0,25,0,0,0,0,0,3,0,0,0,1,0,25,0,0,3,22,18,1,1,25,25,25,0,0,20,0,0,0,0,0,0,0,0,0,0,0,0,0,0,0,0,0,0,0,0,0,0,0,0,0,0,0,0,0,0],"split_type":[0,0,0,0,0,0,0,0,0,0,0,0,0,0,0,0,0,0,0,0,0,0,0,0,0,0,0,0,0,0,0,0,0,0,0,0,0,0,0,0,0,0,0,0,0,0,0,0,0,0,0,0,0,0,0,0,0,0,0,0,0,0,0,0,0,0,0,0,0,0,0,0,0,0,0,0,0,0,0,0,0,0,0,0,0,0,0,0,0,0,0,0,0,0,0,0,0,0,0,0,0,0,0,0,0,0,0,0,0,0,0,0,0,0,0,0,0,0,0,0,0,0,0,0,0,0,0,0,0,0,0,0,0,0,0,0,0,0,0,0,0],"sum_hessian":[7.989E3,5.5E3,2.489E3,2.963E3,2.537E3,2.13E3,3.59E2,1.637E3,1.326E3,2.523E3,1.4E1,1.351E3,7.79E2,3.37E2,2.2E1,6.93E2,9.44E2,9.08E2,4.18E2,1.197E3,1.326E3,7.46E2,6.05E2,5.67E2,2.12E2,2.75E2,6.2E1,3.79E2,3.14E2,6.02E2,3.42E2,7.83E2,1.25E2,3.03E2,1.15E2,1.128E3,6.9E1,8.37E2,4.89E2,3.47E2,3.99E2,3.5E2,2.55E2,4.8E2,8.7E1,1.84E2,2.8E1,1.23E2,1.52E2,2.92E2,8.7E1,2.43E2,7.1E1,3.83E2,2.19E2,2.95E2,4.7E1,3.36E2,4.47E2,1.03E2,2.2E1,3E2,3E0,9.8E1,1.7E1,6.46E2,4.82E2,5.7E1,1.2E1,7.78E2,5.9E1,2.61E2,2.28E2,1.22E2,2.25E2,2.11E2,1.88E2,1.58E2,1.92E2,2.66E2,2.14E2,1.85E2,3.4E1,2.84E2,5.2E1,4.44E2,3E0,6.4E1,3.9E1,1.9E1,3E0,1.89E2,1.11E2,7.9E1,1.9E1,1.4E1,3E0,6.42E2,4E0,2.92E2,1.9E2,2.4E1,3.3E1,5.19E2,2.59E2,2.6E1,3.3E1,2.53E2,8E0,1.13E2,1.15E2,2.04E2,8E1,2.04E2,2.4E2,1.75E2,1.4E1,9E0,5E0,4.1E1,6.01E2,2.89E2,3E0,1.86E2,4E0,1.1E1,1.3E1,2.8E1,5E0,3.19E2,2E2,1.21E2,1.38E2,3E0,2.3E1,1.6E1,1.7E1,1.64E2,8.9E1,1.12E2,3E0],"tree_param":{"num_deleted":"0","num_feature":"38","num_nodes":"141","size_leaf_vector":"1"}},{"base_weights":[-1.2244223E-2,-1.4877352E1,3.370068E1,-2.7472698E1,-2.5867507E0,2.6616613E1,8.455484E1,-3.244166E1,-2.0326368E1,-3.222479E0,6.704911E0,1.898632E1,3.898676E1,7.492854E1,1.783992E2,-3.752845E1,-2.9710463E1,-2.2769655E1,-1.5829745E1,-1.0300917E1,2.7460933E0,1.5573749E1,2.383028E1,3.4367043E1,4.7723976E1,6.8503296E1,4.8481855E0,1.2527357E1,7.2927346E0,-3.9943012E1,-1.749876E0,-3.1784367E1,-2.7799463E1,-2.4172274E1,-1.6450249E1,-1.708918E1,-6.634281E-1,-1.651101E1,-7.205624E0,1.322666E-1,6.498529E0,1.3818129E1,1.7734776E1,2.1834452E1,2.6183573E1,3.262089E1,2.2521465E0,4.552475E1,3.1672676E0,3.0813923E0,7.347422E1,-2.055265E0,-1.7456185E0,-3.32104E1,-1.4974993E0,-2.9364023E1,-1.3028961E0,-2.7192877E1,-2.2364714E1,-9.051043E-1,-6.8983656E-1,-8.652031E-1,-6.184277E-1,-2.8569368E1,-1.4560338E1,-8.233777E0,1.2377297E1,8.266151E-1,-9.532955E0,4.9126363E0,9.477811E0,6.4253646E-1,7.473917E-1,8.37032E-1,9.4024724E-1,1.0745631E0,1.4853226E0,1.2851909E0,1.7048098E0,1.519767E0,1.7560843E0,2.138143E0,2.49251E0,1.7696701E0,3.7076976E0,-1.7518686E0,-1.5041361E0,-1.5897268E0,-1.3233702E0,-2.8451065E1,-1.0548975E0,-2.2696066E1,-7.841261E-1,-1.8694534E0,-1.7784363E1,-1.5058698E1,1.2266318E0,-9.809896E0,-4.026851E0,8.044355E0,1.08788E0,-1.8403678E0,5.419473E0,-1.6109917E1,-5.841726E0,4.6594253E0,7.262253E-1,4.1417637E-1,1.0151854E1,-1.5140426E0,-1.1205392E0,-1.1383394E0,-5.3903145E-1,-1.0149479E0,-3.670365E-1,-8.7733567E-1,-4.7352168E-1,-5.057089E-1,5.205475E-2,-2.4828596E-1,3.1574878E-1,2.4991012E-1,5.4801863E-1,-1.5269619E-1,-1.24733485E-2,1.6915755E-1,3.820917E-1,-1.3770269E0,-6.337392E-1,-4.1120824E-1,-1.0673256E-1,1.781851E-1,3.0497745E-1,5.1814836E-1,2.4356924E-1],"categories":[],"categories_nodes":[],"categories_segments":[],"categories_sizes":[],"default_left":[0,0,0,0,0,0,0,0,0,0,0,0,0,0,0,0,0,0,0,0,0,0,0,0,0,0,0,0,0,0,0,0,0,0,0,0,0,0,0,0,0,0,0,0,0,0,0,0,0,0,0,0,0,0,0,0,0,0,0,0,0,0,0,0,0,0,0,0,0,0,0,0,0,0,0,0,0,0,0,0,0,0,0,0,0,0,0,0,0,0,0,0,0,0,0,0,0,0,0,0,0,0,0,0,0,0,0,0,0,0,0,0,0,0,0,0,0,0,0,0,0,0,0,0,0,0,0,0,0,0,0,0,0,0,0],"id":6,"left_children":[1,3,5,7,9,11,13,15,17,19,-1,21,23,25,27,29,31,33,35,37,39,41,43,45,47,49,-1,-1,-1,51,-1,53,55,57,59,61,-1,63,65,67,69,71,73,75,77,79,-1,81,-1,-1,83,-1,-1,85,-1,87,-1,89,91,-1,-1,-1,-1,93,95,97,99,101,103,105,107,-1,-1,-1,-1,-1,-1,-1,-1,-1,-1,-1,-1,-1,-1,-1,-1,-1,-1,109,-1,111,-1,-1,113,115,-1,117,119,121,-1,123,125,127,129,131,-1,-1,133,-1,-1,-1,-1,-1,-1,-1,-1,-1,-1,-1,-1,-1,-1,-1,-1,-1,-1,-1,-1,-1,-1,-1,-1,-1,-1],"loss_changes":[3.997644E6,8.56926E5,8.7713025E5,9.6424375E4,2.4399744E5,2.0162738E5,2.55838E5,2.126675E4,1.1988469E4,1.1794292E5,0E0,2.1581156E4,3.133675E4,3.186775E4,2.6853E4,2.0181875E3,3.28975E3,6.037375E3,1.0602734E3,2.4427578E4,1.4858589E4,2.7218125E3,1.9974375E3,8.5599375E3,6.7356875E3,2.7859375E3,0E0,0E0,0E0,1.9625E2,0E0,3.080625E2,7.4978125E2,2.624125E3,3.4198047E2,5.3773438E1,0E0,9.557305E3,1.729655E4,6.007543E3,2.8922773E3,2.8440625E2,5.4351562E1,1.774375E2,5.7453125E1,1.5260625E3,0E0,8.4290625E2,0E0,0E0,4.556875E2,0E0,0E0,4.9453125E2,0E0,1.1649844E3,0E0,1.0638125E3,4.7659375E2,0E0,0E0,0E0,0E0,4.852047E3,7.5194453E3,5.3445586E3,1.5726792E3,1.0237949E4,1.3625146E3,9.253291E2,8.898047E1,0E0,0E0,0E0,0E0,0E0,0E0,0E0,0E0,0E0,0E0,0E0,0E0,0E0,0E0,0E0,0E0,0E0,0E0,1.2776719E3,0E0,5.45625E1,0E0,0E0,5.863125E2,4.8808594E3,0E0,1.9585625E3,2.1966003E3,2.2057935E2,0E0,1.02055054E3,1.363457E3,4.7550928E2,3.3571936E2,6.07876E2,0E0,0E0,9.778223E1,0E0,0E0,0E0,0E0,0E0,0E0,0E0,0E0,0E0,0E0,0E0,0E0,0E0,0E0,0E0,0E0,0E0,0E0,0E0,0E0,0E0,0E0,0E0,0E0,0E0,0E0],"parents":[2147483647,0,0,1,1,2,2,3,3,4,4,5,5,6,6,7,7,8,8,9,9,11,11,12,12,13,13,14,14,15,15,16,16,17,17,18,18,19,19,20,20,21,21,22,22,23,23,24,24,25,25,29,29,31,31,32,32,33,33,34,34,35,35,37,37,38,38,39,39,40,40,41,41,42,42,43,43,44,44,45,45,47,47,50,50,53,53,55,55,57,57,58,58,63,63,64,64,65,65,66,66,67,67,68,68,69,69,70,70,89,89,91,91,94,94,95,95,97,97,98,98,99,99,101,101,102,102,103,103,104,104,105,105,108,108],"right_children":[2,4,6,8,10,12,14,16,18,20,-1,22,24,26,28,30,32,34,36,38,40,42,44,46,48,50,-1,-1,-1,52,-1,54,56,58,60,62,-1,64,66,68,70,72,74,76,78,80,-1,82,-1,-1,84,-1,-1,86,-1,88,-1,90,92,-1,-1,-1,-1,94,96,98,100,102,104,106,108,-1,-1,-1,-1,-1,-1,-1,-1,-1,-1,-1,-1,-1,-1,-1,-1,-1,-1,110,-1,112,-1,-1,114,116,-1,118,120,122,-1,124,126,128,130,132,-1,-1,134,-1,-1,-1,-1,-1,-1,-1,-1,-1,-1,-1,-1,-1,-1,-1,-1,-1,-1,-1,-1,-1,-1,-1,-1,-1,-1],"split_conditions":[3.800386E-1,-5.264717E-1,1.9637287E0,-8.6608344E-1,1.757614E0,1.1161498E0,3.3044407E0,-1.150847E0,-5.8517593E-1,-1.2963474E-1,6.704911E0,7.318761E-1,1.5926764E0,2.5808518E0,2.9160017E-1,-1.2147261E0,-1.0203303E0,3.5109326E-2,-4.333165E-1,-3.9782858E-1,2.3386435E-1,5.6467533E-1,9.264399E-1,1.6551417E0,2.392525E0,2.1717353E0,4.8481855E0,1.2527357E1,7.2927346E0,-1.1503893E0,-1.749876E0,-7.7331054E-1,-5.4915774E-1,-8.3870053E-1,2.9600847E-1,4.1543412E-1,-6.634281E-1,-9.9096596E-1,2.787382E0,3.5830727E-1,2.4887429E-1,4.7924545E-1,6.5038806E-1,1.3191328E0,1.4687076E0,1.3195075E0,2.2521465E0,1.757614E0,3.1672676E0,3.0813923E0,1.8734215E0,-2.055265E0,-1.7456185E0,-9.63581E-1,-1.4974993E0,-8.5622895E-1,-1.3028961E0,-7.3213553E-1,1.3108083E0,-9.051043E-1,-6.8983656E-1,-8.652031E-1,-6.184277E-1,-9.591161E-1,5.8774287E-1,-8.547445E-2,3.5971532E0,5.4800488E-2,-1.7851016E-1,5.1157457E-1,2.9979494E-1,6.4253646E-1,7.473917E-1,8.37032E-1,9.4024724E-1,1.0745631E0,1.4853226E0,1.2851909E0,1.7048098E0,1.519767E0,1.7560843E0,2.138143E0,2.49251E0,1.7696701E0,3.7076976E0,-1.7518686E0,-1.5041361E0,-1.5897268E0,-1.3233702E0,-3.5623938E-1,-1.0548975E0,1.3996702E0,-7.841261E-1,-1.8694534E0,3.4377873E-1,-4.5425984E-1,1.2266318E0,1.0799308E0,1.7966338E-1,3.0778074E0,1.08788E0,-3.6324725E-2,1.8448846E-1,-3.805066E-1,-1.0598855E-2,1.6565253E-1,7.262253E-1,4.1417637E-1,2.787382E0,-1.5140426E0,-1.1205392E0,-1.1383394E0,-5.3903145E-1,-1.0149479E0,-3.670365E-1,-8.7733567E-1,-4.7352168E-1,-5.057089E-1,5.205475E-2,-2.4828596E-1,3.1574878E-1,2.4991012E-1,5.4801863E-1,-1.5269619E-1,-1.24733485E-2,1.6915755E-1,3.820917E-1,-1.3770269E0,-6.337392E-1,-4.1120824E-1,-1.0673256E-1,1.781851E-1,3.0497745E-1,5.1814836E-1,2.4356924E-1],"split_indices":[1,24,0,24,0,1,0,24,1,1,0,1,1,0,33,3,24,3,1,25,25,1,1,0,1,0,0,0,0,1,0,3,3,25,3,3,0,0,4,1,1,1,1,0,0,1,0,0,0,0,24,0,0,1,0,1,0,1,4,0,0,0,0,25,0,25,4,1,25,25,1,0,0,0,0,0,0,0,0,0,0,0,0,0,0,0,0,0,0,3,0,2,0,0,3,1,0,3,25,4,0,1,1,25,25,1,0,0,4,0,0,0,0,0,0,0,0,0,0,0,0,0,0,0,0,0,0,0,0,0,0,0,0,0,0],"split_type":[0,0,0,0,0,0,0,0,0,0,0,0,0,0,0,0,0,0,0,0,0,0,0,0,0,0,0,0,0,0,0,0,0,0,0,0,0,0,0,0,0,0,0,0,0,0,0,0,0,0,0,0,0,0,0,0,0,0,0,0,0,0,0,0,0,0,0,0,0,0,0,0,0,0,0,0,0,0,0,0,0,0,0,0,0,0,0,0,0,0,0,0,0,0,0,0,0,0,0,0,0,0,0,0,0,0,0,0,0,0,0,0,0,0,0,0,0,0,0,0,0,0,0,0,0,0,0,0,0,0,0,0,0,0,0],"sum_hessian":[7.975E3,5.535E3,2.44E3,2.733E3,2.802E3,2.143E3,2.97E2,1.61E3,1.123E3,2.79E3,1.2E1,1.327E3,8.16E2,2.71E2,2.6E1,5.58E2,1.052E3,7.25E2,3.98E2,1.276E3,1.514E3,7.81E2,5.46E2,5.37E2,2.79E2,2.13E2,5.8E1,6E0,2E1,2.78E2,2.8E2,4.97E2,5.55E2,5.91E2,1.34E2,2.63E2,1.35E2,4.23E2,8.53E2,8.93E2,6.21E2,4.35E2,3.46E2,3.01E2,2.45E2,4.65E2,7.2E1,2.48E2,3.1E1,9.5E1,1.18E2,2.2E2,5.8E1,2.7E2,2.27E2,2.84E2,2.71E2,2.16E2,3.75E2,7.9E1,5.5E1,2.49E2,1.4E1,5.7E1,3.66E2,8.11E2,4.2E1,8.34E2,5.9E1,4.07E2,2.14E2,2.41E2,1.94E2,1.88E2,1.58E2,2.92E2,9E0,2.35E2,1E1,2.53E2,2.12E2,1.58E2,9E1,3E0,1.15E2,1.64E2,1.06E2,1.49E2,1.35E2,1.76E2,4E1,3.55E2,2E1,3E1,2.7E1,3.62E2,4E0,5.89E2,2.22E2,3E1,1.2E1,5.28E2,3.06E2,2E1,3.9E1,3.98E2,9E0,8.2E1,1.32E2,1.32E2,4.4E1,3.52E2,3E0,2.1E1,6E0,2.49E2,1.13E2,5.73E2,1.6E1,2.04E2,1.8E1,1.6E1,1.4E1,2.99E2,2.29E2,1.61E2,1.45E2,3E0,1.7E1,2.3E1,1.6E1,2.28E2,1.7E2,1.26E2,6E0],"tree_param":{"num_deleted":"0","num_feature":"38","num_nodes":"135","size_leaf_vector":"1"}},{"base_weights":[-1.382633E-1,-1.4173695E1,3.221868E1,-2.5966461E1,-1.8661993E0,2.5057413E1,7.208244E1,-3.1144438E1,-1.9402422E1,-7.148164E0,3.4715514E0,1.8225107E1,3.7336296E1,6.393273E1,1.6875998E2,-3.54956E1,-2.86267E1,-2.2076918E1,-1.5311914E1,-8.324368E0,4.240227E1,4.8899406E-1,5.5297985E0,1.4805271E1,2.2746712E1,3.2854862E1,4.5173183E1,3.757941E1,7.213116E1,3.2879624E0,1.831868E2,-3.7695698E1,-1.6639849E0,-3.00694E1,-2.6102577E1,-2.3382524E1,-1.557993E1,-1.6793123E1,-1.2600424E1,-1.0358981E1,-3.3131957E0,-9.714479E0,5.9660087E0,1.5220156E-1,1.8786544E0,6.653809E0,-7.139502E0,1.3156584E1,1.681119E1,1.0309199E0,1.2547191E0,1.4678822E0,3.5270958E1,1.9834162E0,2.448421E0,7.010824E-1,4.0983765E1,6.703618E1,8.791223E1,7.549493E0,1.199047E1,-1.9479831E0,-1.6563202E0,-3.1611256E1,-1.3422261E0,-1.3465666E0,-1.1993741E0,-2.4914305E1,-2.119274E1,-8.6566067E-1,-6.32353E-1,-1.7023203E1,-6.239623E-1,-6.777632E-1,-5.681271E-1,-1.32813635E1,-6.9580364E0,-5.108656E0,4.271913E0,3.070259E0,-2.5877077E1,-1.5508962E0,1.2940006E0,4.8371325E0,8.626614E0,4.3948656E-1,-8.589271E0,6.116404E-1,7.108016E-1,7.9554886E-1,8.8768387E-1,1.6592416E0,3.765423E1,5.943197E1,3.7749115E1,2.9095845E0,7.095815E1,4.792427E0,6.7247185E1,-3.3007763E1,-1.4678533E0,-2.7863861E1,-2.2553997E1,-1.0647503E0,-5.797717E-1,-9.043891E-1,-7.934118E-1,-1.5100652E1,-1.9537619E0,-8.592111E0,-4.6112027E0,-5.4556646E0,-1.3569736E0,9.255076E0,-1.0960671E0,-1.4988042E0,-6.683109E-1,-1.7895068E0,6.033505E0,1.1169521E0,4.6646276E-1,4.0430984E0,5.826911E0,3.7591812E-1,9.446475E0,-1.2078117E0,-7.3675966E0,1.4428058E0,1.9413096E0,1.4080107E0,3.940867E0,1.3691132E0,4.289681E1,2.0340602E0,3.5908163E0,1.7076912E0,3.5539072E0,-1.7201458E0,-1.4933046E0,-1.4350263E0,-9.8809975E-1,-1.1426481E0,-7.174606E-1,-7.9908097E-1,4.649453E-1,-2.2584514E-1,5.619176E-1,-4.4845518E-1,3.785057E-2,-2.528874E-1,8.2582094E-2,-3.1349048E-1,-2.1233772E-1,1.04164355E-1,-1.008577E-1,1.6292162E-1,7.394483E-1,4.129749E-1,-1.5866284E-1,1.8964043E-1,-9.429688E-2,3.8506004E-1,1.4287166E-1,4.679266E-2,4.0880066E-1,1.9270925E-1,5.0378376E-1,2.8482166E-1,4.90882E-1,1.2119593E-1,4.807487E-1,-4.5638344E-1,-5.919824E-2,1.6426915E0,2.3443735E0],"categories":[],"categories_nodes":[],"categories_segments":[],"categories_sizes":[],"default_left":[0,0,0,0,0,0,0,0,0,0,0,0,0,0,0,0,0,0,0,0,0,0,0,0,0,0,0,0,0,0,0,0,0,0,0,0,0,0,0,0,0,0,0,0,0,0,0,0,0,0,0,0,0,0,0,0,0,0,0,0,0,0,0,0,0,0,0,0,0,0,0,0,0,0,0,0,0,0,0,0,0,0,0,0,0,0,0,0,0,0,0,0,0,0,0,0,0,0,0,0,0,0,0,0,0,0,0,0,0,0,0,0,0,0,0,0,0,0,0,0,0,0,0,0,0,0,0,0,0,0,0,0,0,0,0,0,0,0,0,0,0,0,0,0,0,0,0,0,0,0,0,0,0,0,0,0,0,0,0,0,0,0,0,0,0,0,0,0,0,0,0,0,0,0,0],"id":7,"left_children":[1,3,5,7,9,11,13,15,17,19,21,23,25,27,29,31,33,35,37,39,41,43,45,47,49,51,53,55,57,-1,59,61,-1,63,65,67,69,71,73,75,77,79,-1,81,-1,83,85,87,89,-1,-1,-1,91,-1,-1,-1,93,95,97,-1,-1,-1,-1,99,-1,-1,-1,101,103,-1,-1,105,-1,-1,-1,107,109,111,113,-1,115,117,119,121,123,-1,125,-1,-1,-1,-1,-1,127,129,131,-1,133,-1,135,137,-1,139,141,-1,-1,-1,-1,143,145,147,149,151,153,155,157,-1,-1,159,161,163,-1,165,167,-1,169,-1,171,-1,-1,-1,-1,-1,173,-1,-1,-1,-1,-1,-1,-1,-1,-1,-1,-1,-1,-1,-1,-1,-1,-1,-1,-1,-1,-1,-1,-1,-1,-1,-1,-1,-1,-1,-1,-1,-1,-1,-1,-1,-1,-1,-1,-1,-1,-1,-1],"loss_changes":[3.6326975E6,8.096845E5,6.890435E5,9.622875E4,7.702211E4,1.71552E5,2.79156E5,1.64135E4,1.34354375E4,8.037336E4,8.3399795E3,2.0090031E4,2.425925E4,7.0964375E4,2.9561062E4,1.56825E3,2.9039375E3,6.0739375E3,1.8005547E3,1.36484375E4,1.29437875E5,6.9385234E3,1.1496811E4,2.2757344E3,2.3156562E3,2.935875E3,3.573E3,6.081867E3,1.4931375E4,0E0,7.5449375E3,3.43875E2,0E0,2.32375E3,1.3078125E1,1.5851875E3,4.4189453E2,1.06171875E2,5.9914062E1,9.389266E3,5.3195225E3,2.4578557E4,0E0,1.0754235E3,0E0,2.6068086E3,1.5996819E3,2.3616406E2,3.4453125E0,0E0,0E0,0E0,1.0775E2,0E0,0E0,0E0,2.0529766E3,2.8083125E3,3.3946875E3,0E0,0E0,0E0,0E0,3.7203125E2,0E0,0E0,0E0,1.912625E3,1.415625E1,0E0,0E0,8.430469E1,0E0,0E0,0E0,1.0521875E4,1.6592402E3,4.0268457E2,2.0163584E3,0E0,4.711289E2,4.1255463E2,4.6047028E2,2.8059082E2,2.4971875E2,0E0,9.8210986E2,0E0,0E0,0E0,0E0,0E0,1.16953125E2,3.236418E3,2.2407734E3,0E0,5.60125E2,0E0,1.08E2,9.021875E1,0E0,5.0382812E2,1.8230469E2,0E0,0E0,0E0,0E0,9.628008E3,2.4853164E3,9.231738E2,5.229358E2,2.5683105E2,6.77957E1,1.2460171E3,7.4524097E2,0E0,0E0,1.2342731E2,1.5071396E1,4.0782462E2,0E0,2.0960693E2,3.259424E1,0E0,2.1216992E2,0E0,6.2044385E2,0E0,0E0,0E0,0E0,0E0,1.0277344E2,0E0,0E0,0E0,0E0,0E0,0E0,0E0,0E0,0E0,0E0,0E0,0E0,0E0,0E0,0E0,0E0,0E0,0E0,0E0,0E0,0E0,0E0,0E0,0E0,0E0,0E0,0E0,0E0,0E0,0E0,0E0,0E0,0E0,0E0,0E0,0E0,0E0,0E0,0E0,0E0,0E0,0E0],"parents":[2147483647,0,0,1,1,2,2,3,3,4,4,5,5,6,6,7,7,8,8,9,9,10,10,11,11,12,12,13,13,14,14,15,15,16,16,17,17,18,18,19,19,20,20,21,21,22,22,23,23,24,24,25,25,26,26,27,27,28,28,30,30,31,31,33,33,34,34,35,35,36,36,37,37,38,38,39,39,40,40,41,41,43,43,45,45,46,46,47,47,48,48,52,52,56,56,57,57,58,58,63,63,67,67,68,68,71,71,75,75,76,76,77,77,78,78,80,80,81,81,82,82,83,83,84,84,86,86,92,92,93,93,94,94,96,96,98,98,99,99,101,101,102,102,107,107,108,108,109,109,110,110,111,111,112,112,113,113,114,114,117,117,118,118,119,119,121,121,122,122,124,124,126,126,132,132],"right_children":[2,4,6,8,10,12,14,16,18,20,22,24,26,28,30,32,34,36,38,40,42,44,46,48,50,52,54,56,58,-1,60,62,-1,64,66,68,70,72,74,76,78,80,-1,82,-1,84,86,88,90,-1,-1,-1,92,-1,-1,-1,94,96,98,-1,-1,-1,-1,100,-1,-1,-1,102,104,-1,-1,106,-1,-1,-1,108,110,112,114,-1,116,118,120,122,124,-1,126,-1,-1,-1,-1,-1,128,130,132,-1,134,-1,136,138,-1,140,142,-1,-1,-1,-1,144,146,148,150,152,154,156,158,-1,-1,160,162,164,-1,166,168,-1,170,-1,172,-1,-1,-1,-1,-1,174,-1,-1,-1,-1,-1,-1,-1,-1,-1,-1,-1,-1,-1,-1,-1,-1,-1,-1,-1,-1,-1,-1,-1,-1,-1,-1,-1,-1,-1,-1,-1,-1,-1,-1,-1,-1,-1,-1,-1,-1,-1,-1],"split_conditions":[3.800386E-1,-5.094575E-1,1.7397708E0,-8.839931E-1,-8.137825E-2,1.1373578E0,4.4515157E0,-1.150847E0,-6.0770273E-1,2.7245777E0,1.09346226E-1,7.318761E-1,1.5926764E0,1.7017082E0,5.051005E-1,-1.2147261E0,-6.0703325E-1,2.1880638E-2,-4.4304204E-1,1.4865418E-3,-1.0382585E-1,3.4639094E0,3.5830727E-1,5.6467533E-1,9.264399E-1,8.854804E-1,1.2660605E0,8.068062E-1,2.7245777E0,3.2879624E0,8.766009E-1,-1.1417906E0,-1.6639849E0,-9.106177E-1,-9.652581E-1,-2.956079E-1,3.168314E-1,3.4377873E-1,-3.8364416E-1,-3.4648135E-1,1.1562138E-1,-9.111292E-1,5.9660087E0,-9.43897E-3,1.8786544E0,2.2787158E-1,-1.517611E-1,4.7924545E-1,6.5038806E-1,1.0309199E0,1.2547191E0,1.4678822E0,1.1279323E0,1.9834162E0,2.448421E0,7.010824E-1,3.4606043E-1,2.0285637E0,2.7054977E0,7.549493E0,1.199047E1,-1.9479831E0,-1.6563202E0,-8.39454E-1,-1.3422261E0,-1.3465666E0,-1.1993741E0,-8.2918406E-1,1.1306521E-1,-8.6566067E-1,-6.32353E-1,-5.287636E-1,-6.239623E-1,-6.777632E-1,-5.681271E-1,7.8840965E-1,-2.173873E-1,2.5028986E-1,2.1257762E-2,3.070259E0,-7.018824E-1,4.0368736E-1,5.910693E-1,1.75272E-1,2.855195E-1,4.3948656E-1,-2.7225944E-1,6.116404E-1,7.108016E-1,7.9554886E-1,8.8768387E-1,1.6592416E0,-4.882565E-1,2.2756753E0,1.2777718E0,2.9095845E0,-1.3663657E0,4.792427E0,-5.0317794E-1,-1.0016347E0,-1.4678533E0,-7.4211735E-1,1.0105503E0,-1.0647503E0,-5.797717E-1,-9.043891E-1,-7.934118E-1,2.0439317E0,1.611528E0,1.4303568E-1,2.8438982E-2,-1.6267186E-1,-7.66743E-1,1.2543958E-1,-3.1752747E-1,-1.4988042E0,-6.683109E-1,-1.4529839E0,-1.2250984E0,1.695126E0,4.6646276E-1,6.241184E-1,1.4949396E0,3.7591812E-1,-1.0406568E-1,-1.2078117E0,2.0009269E-1,1.4428058E0,1.9413096E0,1.4080107E0,3.940867E0,1.3691132E0,4.1361216E-1,2.0340602E0,3.5908163E0,1.7076912E0,3.5539072E0,-1.7201458E0,-1.4933046E0,-1.4350263E0,-9.8809975E-1,-1.1426481E0,-7.174606E-1,-7.9908097E-1,4.649453E-1,-2.2584514E-1,5.619176E-1,-4.4845518E-1,3.785057E-2,-2.528874E-1,8.2582094E-2,-3.1349048E-1,-2.1233772E-1,1.04164355E-1,-1.008577E-1,1.6292162E-1,7.394483E-1,4.129749E-1,-1.5866284E-1,1.8964043E-1,-9.429688E-2,3.8506004E-1,1.4287166E-1,4.679266E-2,4.0880066E-1,1.9270925E-1,5.0378376E-1,2.8482166E-1,4.90882E-1,1.2119593E-1,4.807487E-1,-4.5638344E-1,-5.919824E-2,1.6426915E0,2.3443735E0],"split_indices":[1,24,24,24,1,1,24,24,1,24,1,1,1,1,10,3,3,3,1,29,8,28,1,1,1,24,24,1,24,0,3,1,0,1,24,3,3,3,1,1,17,7,0,1,0,1,23,1,1,0,0,0,24,0,0,0,33,24,18,0,0,0,0,3,0,0,0,1,30,0,0,1,0,0,0,3,1,29,23,0,1,29,29,1,1,0,29,0,0,0,0,0,7,23,1,0,14,0,7,1,0,29,2,0,0,0,0,5,3,17,17,1,5,24,1,0,0,29,13,3,0,29,23,0,28,0,29,0,0,0,0,0,2,0,0,0,0,0,0,0,0,0,0,0,0,0,0,0,0,0,0,0,0,0,0,0,0,0,0,0,0,0,0,0,0,0,0,0,0,0,0,0,0,0,0],"split_type":[0,0,0,0,0,0,0,0,0,0,0,0,0,0,0,0,0,0,0,0,0,0,0,0,0,0,0,0,0,0,0,0,0,0,0,0,0,0,0,0,0,0,0,0,0,0,0,0,0,0,0,0,0,0,0,0,0,0,0,0,0,0,0,0,0,0,0,0,0,0,0,0,0,0,0,0,0,0,0,0,0,0,0,0,0,0,0,0,0,0,0,0,0,0,0,0,0,0,0,0,0,0,0,0,0,0,0,0,0,0,0,0,0,0,0,0,0,0,0,0,0,0,0,0,0,0,0,0,0,0,0,0,0,0,0,0,0,0,0,0,0,0,0,0,0,0,0,0,0,0,0,0,0,0,0,0,0,0,0,0,0,0,0,0,0,0,0,0,0,0,0,0,0,0,0],"sum_hessian":[7.997E3,5.578E3,2.419E3,2.848E3,2.73E3,2.052E3,3.67E2,1.59E3,1.258E3,1.372E3,1.358E3,1.32E3,7.32E2,3.4E2,2.7E1,5.78E2,1.012E3,7.58E2,5E2,1.341E3,3.1E1,5.55E2,8.03E2,7.54E2,5.66E2,4.69E2,2.63E2,8.2E1,2.58E2,4E0,2.3E1,2.82E2,2.96E2,6.37E2,3.75E2,6.29E2,1.29E2,3.2E2,1.8E2,9.53E2,3.88E2,1.9E1,1.2E1,5.51E2,4E0,7.38E2,6.5E1,4.18E2,3.36E2,3.02E2,2.64E2,1.97E2,2.72E2,1.12E2,1.51E2,1.1E1,7.1E1,1.99E2,5.9E1,1.7E1,6E0,2.15E2,6.7E1,4.25E2,2.12E2,2.61E2,1.14E2,3.64E2,2.65E2,7.8E1,5.1E1,3.01E2,1.9E1,9.6E1,8.4E1,5.11E2,4.42E2,3.14E2,7.4E1,3E0,1.6E1,2.21E2,3.3E2,3.86E2,3.52E2,5E0,6E1,2.3E2,1.88E2,1.81E2,1.55E2,1.53E2,1.19E2,8E0,6.3E1,6.6E1,1.33E2,4E1,1.9E1,2.54E2,1.71E2,1.57E2,2.07E2,2.61E2,4E0,1.49E2,1.52E2,4.4E2,7.1E1,2.59E2,1.83E2,2.87E2,2.7E1,3.8E1,3.6E1,1.1E1,5E0,2.15E2,6E0,3.24E2,6E0,2.17E2,1.69E2,1.54E2,1.98E2,3E0,5.7E1,1.7E1,1.02E2,4E0,4E0,2.3E1,4E1,5E0,1.28E2,3E0,1.6E1,1.69E2,8.5E1,1.4E2,1.7E1,1.98E2,9E0,4.25E2,1.5E1,6E1,1.1E1,2.49E2,1E1,1.71E2,1.2E1,1.69E2,1.18E2,4E0,2.3E1,1.9E1,1.9E1,6E0,3E1,3E0,2.12E2,3E0,3E0,3.17E2,7E0,2.12E2,5E0,1.66E2,3E0,5E0,1.93E2,4.4E1,1.3E1,1.4E1,2.6E1],"tree_param":{"num_deleted":"0","num_feature":"38","num_nodes":"175","size_leaf_vector":"1"}},{"base_weights":[-2.5734026E-2,-1.3411077E1,3.0513542E1,-2.4005428E1,-1.0326635E0,2.3855251E1,6.67618E1,-2.9447922E1,-1.7971533E1,-5.9310308E0,4.6246037E0,1.7697447E1,3.6163E1,5.9103065E1,1.4480736E2,-3.309212E1,-2.6622313E1,-2.0268196E1,-1.2821877E1,-8.955398E0,-1.291657E0,3.6350243E0,4.5526985E1,1.4508286E1,2.2711687E1,3.1958952E1,4.3775608E1,3.9150772E1,6.708706E1,1.238621E1,1.2206972E2,-3.480685E1,-2.928276E1,-2.7973572E1,-2.4457588E1,-2.1287868E1,-1.3243885E1,-1.4102943E1,-8.58815E0,-9.4418E0,2.3765516E0,-3.1875246E0,9.596385E-1,8.726527E-1,6.9273753E0,5.1780486E0,5.8818636E0,1.255823E1,1.6652172E1,1.0280397E0,2.498487E1,3.0153833E1,1.8005415E0,1.9383246E0,2.3526618E0,2.721127E1,4.5920452E1,2.9727616E0,7.454142E1,2.6056015E0,1.3117847E2,-1.7879442E0,-1.5250568E0,-1.5035671E0,-1.1879706E0,-2.9284443E1,-2.4669031E1,-1.2527182E0,-1.6699884E1,-2.2982567E1,-1.8764948E1,-7.231569E-1,-7.1019096E0,-1.4218668E1,-1.7875497E-1,-9.508967E0,-1.9236265E0,-9.85365E0,4.84628E0,-3.2312343E-1,6.970088E0,-3.9825985E0,-1.8902353E0,1.9211626E0,-1.1486652E1,3.1521842E-1,1.7942253E1,6.3587394E0,1.7705605E1,-2.001505E1,3.9860866E0,5.748274E-1,6.716661E-1,7.589876E-1,8.74077E-1,1.2275288E0,1.6173487E0,1.4254569E0,1.6238005E0,2.2199188E1,3.275859E0,1.8258498E0,2.6681237E0,2.4014225E0,7.815853E1,7.0776353E0,4.214002E0,-1.4699851E0,-5.5212176E-1,-1.2776527E0,-1.0083033E0,-8.814336E-1,-3.3600017E-1,-2.380862E1,-9.6227723E-1,-1.9050217E1,-4.224081E0,-4.0509507E-1,-1.6323853E-2,-1.5335045E1,-6.494526E-1,-5.06082E-1,-3.311149E-1,-1.7119907E-1,1.3416281E-1,-1.536337E1,-8.625326E0,1.6692094E0,-1.1036144E0,1.838439E0,-1.3837094E0,2.0257841E-1,4.4464406E-1,-4.0800114E0,1.4091492E-2,-2.131428E0,2.6377115E-1,5.1688814E-1,5.163671E0,-6.900464E0,-1.2906599E0,-1.5289776E1,1.342384E0,3.5007787E0,5.4795074E-1,4.8379927E0,8.524655E0,5.833763E-1,1.0375092E0,-1.1893682E0,-1.8471698E-1,6.329176E-1,1.2236528E0,7.93204E1,1.9644759E0,-1.4746028E0,-1.1523435E0,-9.576947E-1,-5.6761134E-1,-3.1489417E-1,-2.8790379E-2,-7.726998E-1,-3.282426E-1,-8.279894E-1,1.9455643E-1,-4.5218983E-1,6.461881E-3,2.3369598E-1,-1.6705269E-1,1.17504574E-1,3.6963176E-2,1.9137288E-2,-9.103975E-2,-2.2650813E-1,-1.7785466E-1,-1.1526275E-1,1.5473776E-1,-1.762811E-2,8.6837314E-2,2.1159868E-1,3.9097172E-1,-4.3697762E-1,1.7095948E-2,-9.539852E-1,-4.7428823E-1,-3.8930155E-2,1.895378E-1,-7.454689E-2,2.0972939E-1,1.6193514E-1,2.7137038E-1,3.81806E-1,4.6656114E-1,4.012128E0,1.8563985E0],"categories":[],"categories_nodes":[],"categories_segments":[],"categories_sizes":[],"default_left":[0,0,0,0,0,0,0,0,0,0,0,0,0,0,0,0,0,0,0,0,0,0,0,0,0,0,0,0,0,0,0,0,0,0,0,0,0,0,0,0,0,0,0,0,0,0,0,0,0,0,0,0,0,0,0,0,0,0,0,0,0,0,0,0,0,0,0,0,0,0,0,0,0,0,0,0,0,0,0,0,0,0,0,0,0,0,0,0,0,0,0,0,0,0,0,0,0,0,0,0,0,0,0,0,0,0,0,0,0,0,0,0,0,0,0,0,0,0,0,0,0,0,0,0,0,0,0,0,0,0,0,0,0,0,0,0,0,0,0,0,0,0,0,0,0,0,0,0,0,0,0,0,0,0,0,0,0,0,0,0,0,0,0,0,0,0,0,0,0,0,0,0,0,0,0,0,0,0,0,0,0,0,0,0,0,0,0,0,0,0,0,0,0,0,0],"id":8,"left_children":[1,3,5,7,9,11,13,15,17,19,21,23,25,27,29,31,33,35,37,39,41,43,45,47,49,51,53,55,57,-1,59,61,63,65,67,69,71,73,75,77,79,81,83,85,87,89,-1,91,93,-1,95,97,-1,-1,-1,99,101,-1,103,-1,105,-1,-1,-1,-1,107,109,-1,111,113,115,-1,117,119,-1,121,123,125,127,129,131,133,135,137,139,141,143,145,147,149,-1,-1,-1,-1,-1,-1,-1,-1,-1,151,-1,-1,-1,-1,153,-1,-1,-1,-1,-1,-1,-1,-1,155,-1,157,159,-1,-1,161,-1,-1,-1,-1,-1,163,165,-1,167,169,171,-1,-1,173,-1,175,-1,177,179,181,-1,183,185,-1,187,189,191,-1,-1,-1,-1,-1,-1,193,-1,-1,-1,-1,-1,-1,-1,-1,-1,-1,-1,-1,-1,-1,-1,-1,-1,-1,-1,-1,-1,-1,-1,-1,-1,-1,-1,-1,-1,-1,-1,-1,-1,-1,-1,-1,-1,-1,-1,-1,-1],"loss_changes":[3.2636895E6,7.279403E5,5.8561575E5,9.7693375E4,7.099626E4,1.5525738E5,2.1678575E5,1.5295875E4,1.6546344E4,1.9253223E4,4.7960656E4,2.1626438E4,2.0523562E4,5.233175E4,4.6983188E4,3.4355625E3,1.9191875E3,6.7444688E3,2.2707266E3,4.6028203E3,2.3206687E3,1.0561992E4,8.085892E4,3.3110312E3,2.0874375E3,2.1689062E3,2.1326562E3,6.913922E3,9.50625E3,0E0,1.1643594E4,8.154375E2,2.3504688E2,1.6210938E3,1.2019531E3,3.2243438E3,8.4833984E2,3.597422E2,6.2607275E2,4.737742E3,4.3628918E2,2.9674707E2,3.0019526E3,6.0174536E3,3.1357285E3,3.727738E4,0E0,2.59E2,2.2066406E2,0E0,1.7984375E1,2.7340625E2,0E0,0E0,0E0,6.0332754E3,2.4601562E3,0E0,7.7541875E3,0E0,2.3334375E2,0E0,0E0,0E0,0E0,4.7853125E2,1.21609375E2,0E0,1.4107275E2,1.1069062E3,1.3672031E3,0E0,1.5318848E2,2.5792188E2,0E0,9.568164E1,1.0595485E2,5.1124766E3,3.9421865E3,5.5271893E1,3.692212E1,7.675488E1,2.0827094E2,1.0537131E3,1.0045532E3,9.862277E3,1.8077215E4,1.6221309E3,2.3586572E2,8.356245E2,0E0,0E0,0E0,0E0,0E0,0E0,0E0,0E0,0E0,4.7121875E2,0E0,0E0,0E0,0E0,1.58025E3,0E0,0E0,0E0,0E0,0E0,0E0,0E0,0E0,1.0996719E3,0E0,5.5515625E1,5.690001E1,0E0,0E0,7.485156E1,0E0,0E0,0E0,0E0,0E0,3.2895352E3,2.3311719E3,0E0,2.7415347E2,2.7618294E0,1.3050371E1,0E0,0E0,2.57854E1,0E0,1.0797232E2,0E0,1.734911E2,1.4011414E2,2.0277899E2,0E0,6.548926E2,2.999292E3,0E0,1.2521524E2,2.6427295E2,7.70957E1,0E0,0E0,0E0,0E0,0E0,0E0,9.115625E2,0E0,0E0,0E0,0E0,0E0,0E0,0E0,0E0,0E0,0E0,0E0,0E0,0E0,0E0,0E0,0E0,0E0,0E0,0E0,0E0,0E0,0E0,0E0,0E0,0E0,0E0,0E0,0E0,0E0,0E0,0E0,0E0,0E0,0E0,0E0,0E0,0E0,0E0,0E0,0E0,0E0],"parents":[2147483647,0,0,1,1,2,2,3,3,4,4,5,5,6,6,7,7,8,8,9,9,10,10,11,11,12,12,13,13,14,14,15,15,16,16,17,17,18,18,19,19,20,20,21,21,22,22,23,23,24,24,25,25,26,26,27,27,28,28,30,30,31,31,32,32,33,33,34,34,35,35,36,36,37,37,38,38,39,39,40,40,41,41,42,42,43,43,44,44,45,45,47,47,48,48,50,50,51,51,55,55,56,56,58,58,60,60,65,65,66,66,68,68,69,69,70,70,72,72,73,73,75,75,76,76,77,77,78,78,79,79,80,80,81,81,82,82,83,83,84,84,85,85,86,86,87,87,88,88,89,89,99,99,104,104,113,113,115,115,116,116,119,119,125,125,126,126,128,128,129,129,130,130,133,133,135,135,137,137,138,138,139,139,141,141,142,142,144,144,145,145,146,146,153,153],"right_children":[2,4,6,8,10,12,14,16,18,20,22,24,26,28,30,32,34,36,38,40,42,44,46,48,50,52,54,56,58,-1,60,62,64,66,68,70,72,74,76,78,80,82,84,86,88,90,-1,92,94,-1,96,98,-1,-1,-1,100,102,-1,104,-1,106,-1,-1,-1,-1,108,110,-1,112,114,116,-1,118,120,-1,122,124,126,128,130,132,134,136,138,140,142,144,146,148,150,-1,-1,-1,-1,-1,-1,-1,-1,-1,152,-1,-1,-1,-1,154,-1,-1,-1,-1,-1,-1,-1,-1,156,-1,158,160,-1,-1,162,-1,-1,-1,-1,-1,164,166,-1,168,170,172,-1,-1,174,-1,176,-1,178,180,182,-1,184,186,-1,188,190,192,-1,-1,-1,-1,-1,-1,194,-1,-1,-1,-1,-1,-1,-1,-1,-1,-1,-1,-1,-1,-1,-1,-1,-1,-1,-1,-1,-1,-1,-1,-1,-1,-1,-1,-1,-1,-1,-1,-1,-1,-1,-1,-1,-1,-1,-1,-1,-1],"split_conditions":[3.800386E-1,-4.6073768E-1,1.7397708E0,-9.246156E-1,6.58468E-3,1.1810361E0,3.6922057E0,-1.1585782E0,-5.388497E-1,-1.6267186E-1,3.5864797E0,7.8628397E-1,1.6212962E0,1.7564938E0,2.9160017E-1,-1.0231857E0,-6.20609E-1,1.15951315E-1,-3.6563545E-1,2.3051379E0,-2.4546962E-2,2.8834474E-1,-1.0382585E-1,5.7962954E-1,9.747706E-1,1.1279323E0,1.303223E0,1.2960474E0,2.3209388E0,1.238621E1,2.9198864E0,-1.0855771E0,-1.1011477E0,-8.777216E-1,-8.407861E-1,-7.0515376E-1,5.4833347E-1,5.954913E-1,-3.8901514E-1,2.5408032E0,2.6642869E0,-8.137825E-2,3.4877264E-1,2.528082E0,3.2681262E0,6.1737156E-1,5.8818636E0,4.6483213E-1,6.5038806E-1,1.0280397E0,1.3273833E0,1.3707429E0,1.8005415E0,1.9383246E0,2.3526618E0,3.0585594E0,-1.0003836E0,2.9727616E0,2.7074534E-1,2.6056015E0,1.1871076E0,-1.7879442E0,-1.5250568E0,-1.5035671E0,-1.1879706E0,3.9353916E-1,-7.3213553E-1,-1.2527182E0,3.841997E-1,-7.018824E-1,1.6298945E0,-7.231569E-1,9.5376825E-1,-4.6412644E-1,-1.7875497E-1,-4.633402E-1,-4.5360886E-2,-4.2017952E-1,-1.2052841E0,-3.7156624E-1,-7.2909795E-2,2.4329543E0,1.3544563E0,1.20280825E-1,7.9590924E-2,-3.0563104E-1,-3.0966854E-1,2.4887429E-1,3.5971532E0,-4.4304204E-1,3.9860866E0,5.748274E-1,6.716661E-1,7.589876E-1,8.74077E-1,1.2275288E0,1.6173487E0,1.4254569E0,1.6238005E0,7.5341654E-1,3.275859E0,1.8258498E0,2.6681237E0,2.4014225E0,2.9167416E0,7.0776353E0,4.214002E0,-1.4699851E0,-5.5212176E-1,-1.2776527E0,-1.0083033E0,-8.814336E-1,-3.3600017E-1,-9.7085035E-1,-9.6227723E-1,1.4259684E0,-7.9975456E-2,-4.0509507E-1,-1.6323853E-2,1.6298945E0,-6.494526E-1,-5.06082E-1,-3.311149E-1,-1.7119907E-1,1.3416281E-1,8.25156E-1,1.0799308E0,1.6692094E0,-9.951443E-1,-5.222728E-1,-5.7825905E-1,2.0257841E-1,4.4464406E-1,-1.1799379E-1,1.4091492E-2,1.0456342E0,2.6377115E-1,4.4534054E-2,3.096618E-2,-2.4568181E-2,-1.2906599E0,-4.8361462E-1,7.6420456E-2,3.5007787E0,6.596842E-2,3.3360535E-1,3.0991292E-1,5.833763E-1,1.0375092E0,-1.1893682E0,-1.8471698E-1,6.329176E-1,1.2236528E0,4.199108E0,1.9644759E0,-1.4746028E0,-1.1523435E0,-9.576947E-1,-5.6761134E-1,-3.1489417E-1,-2.8790379E-2,-7.726998E-1,-3.282426E-1,-8.279894E-1,1.9455643E-1,-4.5218983E-1,6.461881E-3,2.3369598E-1,-1.6705269E-1,1.17504574E-1,3.6963176E-2,1.9137288E-2,-9.103975E-2,-2.2650813E-1,-1.7785466E-1,-1.1526275E-1,1.5473776E-1,-1.762811E-2,8.6837314E-2,2.1159868E-1,3.9097172E-1,-4.3697762E-1,1.7095948E-2,-9.539852E-1,-4.7428823E-1,-3.8930155E-2,1.895378E-1,-7.454689E-2,2.0972939E-1,1.6193514E-1,2.7137038E-1,3.81806E-1,4.6656114E-1,4.012128E0,1.8563985E0],"split_indices":[1,22,24,22,22,1,22,22,1,1,24,1,1,1,33,3,3,3,1,4,1,25,8,1,1,24,24,1,24,0,25,1,24,1,24,25,3,3,24,5,4,1,1,8,4,4,0,1,1,0,25,1,0,0,0,8,14,0,3,0,3,0,0,0,0,2,1,0,3,1,4,0,3,1,0,24,1,25,1,25,24,4,31,1,26,25,1,1,4,1,0,0,0,0,0,0,0,0,0,1,0,0,0,0,19,0,0,0,0,0,0,0,0,25,0,4,23,0,0,4,0,0,0,0,0,3,3,0,10,1,5,0,0,1,0,3,0,1,24,25,0,1,1,0,1,25,1,0,0,0,0,0,0,18,0,0,0,0,0,0,0,0,0,0,0,0,0,0,0,0,0,0,0,0,0,0,0,0,0,0,0,0,0,0,0,0,0,0,0,0,0,0,0,0,0],"split_type":[0,0,0,0,0,0,0,0,0,0,0,0,0,0,0,0,0,0,0,0,0,0,0,0,0,0,0,0,0,0,0,0,0,0,0,0,0,0,0,0,0,0,0,0,0,0,0,0,0,0,0,0,0,0,0,0,0,0,0,0,0,0,0,0,0,0,0,0,0,0,0,0,0,0,0,0,0,0,0,0,0,0,0,0,0,0,0,0,0,0,0,0,0,0,0,0,0,0,0,0,0,0,0,0,0,0,0,0,0,0,0,0,0,0,0,0,0,0,0,0,0,0,0,0,0,0,0,0,0,0,0,0,0,0,0,0,0,0,0,0,0,0,0,0,0,0,0,0,0,0,0,0,0,0,0,0,0,0,0,0,0,0,0,0,0,0,0,0,0,0,0,0,0,0,0,0,0,0,0,0,0,0,0,0,0,0,0,0,0,0,0,0,0,0,0],"sum_hessian":[7.982E3,5.55E3,2.432E3,2.99E3,2.56E3,2.056E3,3.76E2,1.57E3,1.42E3,1.372E3,1.188E3,1.372E3,6.84E2,3.44E2,3.2E1,6.81E2,8.89E2,9.8E2,4.4E2,8.3E2,5.42E2,1.161E3,2.7E1,8.41E2,5.31E2,4.44E2,2.4E2,1E2,2.44E2,4E0,2.8E1,4.64E2,2.17E2,5.4E2,3.49E2,8.54E2,1.26E2,3.36E2,1.04E2,7.96E2,3.4E1,2.94E2,2.48E2,6.32E2,5.29E2,1.8E1,9E0,4.44E2,3.97E2,2.78E2,2.53E2,3.13E2,1.31E2,1E2,1.4E2,3.8E1,6.2E1,1.25E2,1.19E2,4E0,2.4E1,3.74E2,9E1,1.86E2,3.1E1,3.81E2,1.59E2,3.22E2,2.7E1,5.06E2,3.48E2,1.04E2,2.2E1,3.32E2,4E0,9.1E1,1.3E1,7.74E2,2.2E1,2.2E1,1.2E1,1.81E2,1.13E2,2.31E2,1.7E1,6.13E2,1.9E1,5.04E2,2.5E1,1.4E1,4E0,2.07E2,2.37E2,1.5E2,2.47E2,2.43E2,1E1,1.91E2,1.22E2,3.5E1,3E0,3E1,3.2E1,1.6E1,1.03E2,1.8E1,6E0,3.78E2,3E0,1.29E2,3E1,2.4E1,3E0,4.1E2,9.6E1,3.41E2,7E0,1.9E1,3E0,1.68E2,1.64E2,7.3E1,1.8E1,1E1,3E0,1.39E2,6.35E2,3E0,1.9E1,7E0,1.5E1,6E0,6E0,1.77E2,4E0,1.1E2,3E0,1.62E2,6.9E1,1.4E1,3E0,3.7E1,5.76E2,4E0,1.5E1,2.98E2,2.06E2,1E1,1.5E1,1.1E1,3E0,8E0,2.7E1,9.9E1,4E0,4.4E1,3.66E2,3.35E2,6E0,4E0,3E0,1.65E2,3E0,1.31E2,8E0,6.06E2,2.9E1,5E0,1.4E1,4E0,3E0,3E0,1.2E1,9.1E1,8.6E1,1.07E2,3E0,9.5E1,6.7E1,5.3E1,1.6E1,1.1E1,3E0,2.1E1,1.6E1,3.09E2,2.67E2,1E1,5E0,8.2E1,2.16E2,1.03E2,1.03E2,9.6E1,3E0],"tree_param":{"num_deleted":"0","num_feature":"38","num_nodes":"195","size_leaf_vector":"1"}},{"base_weights":[-1.888051E-1,-1.2982206E1,2.900118E1,-2.3516947E1,-1.756588E0,2.2610785E1,6.3321518E1,-2.8543186E1,-1.8268476E1,-7.1875644E0,3.1021285E0,1.7107756E1,3.539335E1,5.6740803E1,1.2637939E2,-3.2571266E1,-2.6406336E1,-2.026499E1,-1.3648481E1,-1.0030867E1,-2.534454E0,2.086334E0,3.1902994E1,1.3933257E1,2.2210274E1,3.1945387E1,4.7715508E1,4.5832203E1,6.683579E1,8.19406E0,9.357431E1,-3.450599E1,-2.9833403E1,-2.7762049E1,-2.4061453E1,-2.127375E1,-1.3684436E1,-1.49152975E1,-9.282182E0,-1.0454429E1,4.4196568E0,-4.0110836E0,1.6014616E0,-1.9036959E1,2.7883313E0,6.396425E0,5.394483E0,1.2066615E1,1.6177616E1,2.0337257E1,1.204565E0,2.9029867E1,3.5039696E1,2.1255786E0,2.8927314E0,4.8551292E1,3.615916E1,2.755111E0,7.3481674E1,5.1622386E0,1.3331821E0,-1.7744168E0,-1.506248E0,-1.5325179E0,-1.2389766E0,-1.4625459E0,-2.530416E1,-1.2343582E0,-1.8485514E1,-2.2805738E1,-1.8949245E1,-7.4646354E-1,-9.327787E0,-1.5575871E1,-6.5690744E-1,-5.2527493E-1,-4.296426E0,-1.35088E0,-9.993893E0,1.5157968E0,-2.6277666E0,-4.9815116E0,-2.5779731E0,-1.1079016E-1,4.618922E0,-2.4526638E1,-7.897105E0,2.6644203E-1,5.8744373E0,2.6235483E0,1.8433384E0,5.5818796E-1,6.576354E-1,7.350593E-1,8.362816E-1,1.8879341E0,1.0006132E0,1.3665303E0,1.56667E0,1.725968E0,2.5723379E0,3.961682E1,5.063593E1,9.750212E-1,1.8716534E0,3.9303563E0,3.1273475E0,-1.2818602E0,-9.131586E-1,-9.528963E-1,-4.2846566E-1,-2.3580273E1,-9.42004E-1,-1.9063435E1,-4.707728E-1,-4.9566227E-1,-1.3756362E-1,-7.8942937E-1,-5.852064E-1,-5.2832365E0,6.0916424E-2,-1.0584892E1,-1.4055775E-1,-4.526872E0,1.1207205E-1,-5.090284E0,2.481064E-2,2.135398E-1,-2.7527416E0,-1.2754582E0,6.9960785E-1,5.0081573E0,-3.6004163E-2,-1.504839E0,-9.059925E-1,2.0484744E-1,-1.0980114E1,-1.6632417E-2,1.7166255E0,4.600389E0,9.077677E0,-3.0393693E0,5.8505654E0,2.1793697E0,1.045556E0,4.8428787E1,4.166365E0,-1.2402066E0,-1.0585979E0,-9.620639E-1,-6.5891534E-1,-2.8504524E-1,-1.1980858E-1,-6.2897426E-1,-4.277179E-1,-9.311191E-2,8.555693E-1,-2.8353047E-1,-6.67012E-2,-2.8941503E-1,-2.2380988E-1,-1.6439563E-1,-9.6048884E-2,-4.5212347E-2,-1.9167404E-1,4.4091128E-2,-7.8538135E-2,1.8869628E-1,3.783041E-1,-6.4668345E-1,-1.6755986E-1,-1.1760479E-1,1.133914E-1,1.7387345E-1,3.4267113E-1,4.220023E-1,7.303835E-1,-3.2219657E-1,-6.868038E-2,4.7666726E-1,2.2512698E-1,1.7042675E0,2.4933536E0],"categories":[],"categories_nodes":[],"categories_segments":[],"categories_sizes":[],"default_left":[0,0,0,0,0,0,0,0,0,0,0,0,0,0,0,0,0,0,0,0,0,0,0,0,0,0,0,0,0,0,0,0,0,0,0,0,0,0,0,0,0,0,0,0,0,0,0,0,0,0,0,0,0,0,0,0,0,0,0,0,0,0,0,0,0,0,0,0,0,0,0,0,0,0,0,0,0,0,0,0,0,0,0,0,0,0,0,0,0,0,0,0,0,0,0,0,0,0,0,0,0,0,0,0,0,0,0,0,0,0,0,0,0,0,0,0,0,0,0,0,0,0,0,0,0,0,0,0,0,0,0,0,0,0,0,0,0,0,0,0,0,0,0,0,0,0,0,0,0,0,0,0,0,0,0,0,0,0,0,0,0,0,0,0,0,0,0,0,0,0,0,0,0,0,0,0,0,0,0,0,0,0,0],"id":9,"left_children":[1,3,5,7,9,11,13,15,17,19,21,23,25,27,29,31,33,35,37,39,41,43,45,47,49,51,53,55,57,-1,59,61,63,65,67,69,71,73,75,77,79,81,83,85,87,89,-1,91,93,95,-1,97,99,-1,-1,101,103,-1,105,-1,-1,-1,-1,-1,-1,-1,107,-1,109,111,113,-1,115,117,-1,-1,119,-1,121,-1,123,125,127,129,131,133,135,137,139,141,-1,-1,-1,-1,-1,-1,-1,-1,-1,-1,-1,143,145,-1,-1,-1,-1,-1,-1,-1,-1,147,-1,149,-1,-1,-1,-1,-1,151,-1,153,155,157,-1,159,-1,-1,161,163,165,167,-1,-1,-1,-1,169,171,-1,173,175,177,179,-1,-1,181,-1,-1,-1,-1,-1,-1,-1,-1,-1,-1,-1,-1,-1,-1,-1,-1,-1,-1,-1,-1,-1,-1,-1,-1,-1,-1,-1,-1,-1,-1,-1,-1,-1,-1,-1,-1,-1],"loss_changes":[2.9632432E6,6.5239344E5,5.288854E5,7.455625E4,7.05299E4,1.4289388E5,1.50101E5,1.1637875E4,1.2590719E4,1.6671082E4,4.1213316E4,2.2821219E4,2.4519875E4,3.4929E4,2.7723688E4,1.6138125E3,2.36475E3,6.1612188E3,2.2068125E3,4.838711E3,2.9378867E3,2.027915E4,9.234155E4,3.5040312E3,1.4336875E3,3.331125E3,4.5052812E3,2.6894062E3,9.7534375E3,0E0,1.08353125E4,1.6178125E2,1.24078125E2,1.4482188E3,7.891875E2,2.56275E3,5.7661914E2,1.7924219E2,5.5258105E2,5.5348594E3,4.27721E3,4.7947705E2,6.566766E2,2.4970957E3,1.0279537E4,4.156829E3,0E0,3.2973438E2,7.6140625E1,8.296875E2,0E0,1.37875E2,1.7909375E2,0E0,0E0,3.96625E2,1.401289E2,0E0,1.248375E3,0E0,0E0,0E0,0E0,0E0,0E0,0E0,7.815625E1,0E0,6.37334E1,1.0976562E3,1.9064062E2,0E0,9.5934814E1,7.1015625E0,0E0,0E0,1.2071912E2,0E0,4.3194062E3,0E0,1.8584238E2,1.27648926E2,1.853139E2,7.828758E1,9.9200134E1,4.8956445E2,6.366292E2,7.0208447E3,2.3824023E3,6.391094E2,0E0,0E0,0E0,0E0,0E0,0E0,0E0,0E0,0E0,0E0,0E0,1.2424375E3,3.2521562E3,0E0,0E0,0E0,0E0,0E0,0E0,0E0,0E0,7.0096875E2,0E0,9.705469E1,0E0,0E0,0E0,0E0,0E0,8.044708E0,0E0,2.727461E3,1.3090658E3,4.356018E1,0E0,6.2390137E1,0E0,0E0,5.689319E1,2.8818855E1,2.1656176E1,1.07200195E2,0E0,0E0,0E0,0E0,1.5040234E2,3.862737E3,0E0,1.0564678E3,4.6909375E2,6.487404E1,6.629431E1,0E0,0E0,3.01375E2,0E0,0E0,0E0,0E0,0E0,0E0,0E0,0E0,0E0,0E0,0E0,0E0,0E0,0E0,0E0,0E0,0E0,0E0,0E0,0E0,0E0,0E0,0E0,0E0,0E0,0E0,0E0,0E0,0E0,0E0,0E0,0E0,0E0,0E0,0E0,0E0,0E0],"parents":[2147483647,0,0,1,1,2,2,3,3,4,4,5,5,6,6,7,7,8,8,9,9,10,10,11,11,12,12,13,13,14,14,15,15,16,16,17,17,18,18,19,19,20,20,21,21,22,22,23,23,24,24,25,25,26,26,27,27,28,28,30,30,31,31,32,32,33,33,34,34,35,35,36,36,37,37,38,38,39,39,40,40,41,41,42,42,43,43,44,44,45,45,47,47,48,48,49,49,51,51,52,52,55,55,56,56,58,58,66,66,68,68,69,69,70,70,72,72,73,73,76,76,78,78,80,80,81,81,82,82,83,83,84,84,85,85,86,86,87,87,88,88,89,89,101,101,102,102,111,111,113,113,119,119,121,121,122,122,123,123,125,125,128,128,129,129,130,130,131,131,136,136,137,137,139,139,140,140,141,141,142,142,145,145],"right_children":[2,4,6,8,10,12,14,16,18,20,22,24,26,28,30,32,34,36,38,40,42,44,46,48,50,52,54,56,58,-1,60,62,64,66,68,70,72,74,76,78,80,82,84,86,88,90,-1,92,94,96,-1,98,100,-1,-1,102,104,-1,106,-1,-1,-1,-1,-1,-1,-1,108,-1,110,112,114,-1,116,118,-1,-1,120,-1,122,-1,124,126,128,130,132,134,136,138,140,142,-1,-1,-1,-1,-1,-1,-1,-1,-1,-1,-1,144,146,-1,-1,-1,-1,-1,-1,-1,-1,148,-1,150,-1,-1,-1,-1,-1,152,-1,154,156,158,-1,160,-1,-1,162,164,166,168,-1,-1,-1,-1,170,172,-1,174,176,178,180,-1,-1,182,-1,-1,-1,-1,-1,-1,-1,-1,-1,-1,-1,-1,-1,-1,-1,-1,-1,-1,-1,-1,-1,-1,-1,-1,-1,-1,-1,-1,-1,-1,-1,-1,-1,-1,-1,-1,-1],"split_conditions":[3.800386E-1,-5.1292074E-1,1.7642747E0,-9.6689594E-1,-6.910656E-2,1.2015973E0,3.6922057E0,-1.2148945E0,-5.940212E-1,-2.173873E-1,2.435313E0,8.068062E-1,1.8162471E0,2.1081722E0,1.2419493E0,-1.2147261E0,-6.949183E-1,3.5109326E-2,-4.0272933E-1,2.5408032E0,-2.4546962E-2,-3.7156624E-1,2.582196E0,5.946792E-1,9.983049E-1,1.0455478E0,1.6052245E0,1.9670671E-1,2.220421E0,8.19406E0,4.140094E0,-1.1603932E0,-8.5139656E-1,-9.63581E-1,-9.081711E-1,-7.8058815E-1,4.368695E-1,-4.8361462E-1,-4.633402E-1,-7.3253363E-1,-3.6648425E-1,-1.1799379E-1,-9.1043316E-2,-5.287636E-1,2.4448104E-1,1.3281053E0,5.394483E0,4.8938462E-1,6.5038806E-1,-7.480299E-1,1.204565E0,1.4049308E0,2.1241567E0,2.1255786E0,2.8927314E0,2.0536745E-1,-3.3286297E-1,2.755111E0,2.3171031E0,5.1622386E0,1.3331821E0,-1.7744168E0,-1.506248E0,-1.5325179E0,-1.2389766E0,-1.4625459E0,-7.3213553E-1,-1.2343582E0,1.5269767E-1,-7.3213553E-1,2.0907726E0,-7.4646354E-1,8.25156E-1,2.6109943E-1,-6.5690744E-1,-5.2527493E-1,-6.318927E-2,-1.35088E0,9.758161E-1,1.5157968E0,9.9937916E-1,2.1805832E-1,-1.0070162E0,-1.8842705E-1,2.0897818E-1,-9.342507E-1,-2.1338293E-1,5.5338964E0,4.7916573E-1,3.410323E-2,1.8433384E0,5.5818796E-1,6.576354E-1,7.350593E-1,8.362816E-1,1.8879341E0,1.0006132E0,1.3665303E0,1.56667E0,1.725968E0,2.5723379E0,1.2419535E0,2.9009876E0,9.750212E-1,1.8716534E0,3.9303563E0,3.1273475E0,-1.2818602E0,-9.131586E-1,-9.528963E-1,-4.2846566E-1,-3.5623938E-1,-9.42004E-1,-5.5232936E-1,-4.707728E-1,-4.9566227E-1,-1.3756362E-1,-7.8942937E-1,-5.852064E-1,-3.2722685E-1,6.0916424E-2,-3.2630563E-1,1.8430301E0,-1.2912567E-1,1.1207205E-1,-1.7269437E-1,2.481064E-2,2.135398E-1,-7.213528E-2,8.811383E-1,-5.3966804E-3,7.0120217E-3,-3.6004163E-2,-1.504839E0,-9.059925E-1,2.0484744E-1,-2.901008E-1,2.0342175E-2,1.7166255E0,2.0446983E-1,6.574143E-1,6.874692E-2,-1.0585061E0,2.1793697E0,1.045556E0,1.5599892E0,4.166365E0,-1.2402066E0,-1.0585979E0,-9.620639E-1,-6.5891534E-1,-2.8504524E-1,-1.1980858E-1,-6.2897426E-1,-4.277179E-1,-9.311191E-2,8.555693E-1,-2.8353047E-1,-6.67012E-2,-2.8941503E-1,-2.2380988E-1,-1.6439563E-1,-9.6048884E-2,-4.5212347E-2,-1.9167404E-1,4.4091128E-2,-7.8538135E-2,1.8869628E-1,3.783041E-1,-6.4668345E-1,-1.6755986E-1,-1.1760479E-1,1.133914E-1,1.7387345E-1,3.4267113E-1,4.220023E-1,7.303835E-1,-3.2219657E-1,-6.868038E-2,4.7666726E-1,2.2512698E-1,1.7042675E0,2.4933536E0],"split_indices":[1,22,22,22,22,1,22,22,1,1,8,1,1,1,33,3,3,3,1,5,1,25,24,1,1,24,24,6,24,0,23,1,3,1,24,25,3,1,24,25,14,1,24,1,25,23,0,1,1,21,0,1,24,0,0,3,8,0,29,0,0,0,0,0,0,0,1,0,3,1,5,0,3,3,0,0,1,0,3,0,14,23,20,24,17,25,26,27,25,1,0,0,0,0,0,0,0,0,0,0,0,27,24,0,0,0,0,0,0,0,0,3,0,25,0,0,0,0,0,24,0,25,3,22,0,1,0,0,1,31,17,24,0,0,0,0,1,1,0,1,25,25,7,0,0,1,0,0,0,0,0,0,0,0,0,0,0,0,0,0,0,0,0,0,0,0,0,0,0,0,0,0,0,0,0,0,0,0,0,0,0,0,0],"split_type":[0,0,0,0,0,0,0,0,0,0,0,0,0,0,0,0,0,0,0,0,0,0,0,0,0,0,0,0,0,0,0,0,0,0,0,0,0,0,0,0,0,0,0,0,0,0,0,0,0,0,0,0,0,0,0,0,0,0,0,0,0,0,0,0,0,0,0,0,0,0,0,0,0,0,0,0,0,0,0,0,0,0,0,0,0,0,0,0,0,0,0,0,0,0,0,0,0,0,0,0,0,0,0,0,0,0,0,0,0,0,0,0,0,0,0,0,0,0,0,0,0,0,0,0,0,0,0,0,0,0,0,0,0,0,0,0,0,0,0,0,0,0,0,0,0,0,0,0,0,0,0,0,0,0,0,0,0,0,0,0,0,0,0,0,0,0,0,0,0,0,0,0,0,0,0,0,0,0,0,0,0,0,0],"sum_hessian":[7.933E3,5.516E3,2.417E3,2.845E3,2.671E3,2.039E3,3.78E2,1.451E3,1.394E3,1.261E3,1.41E3,1.427E3,6.12E2,3.44E2,3.4E1,4.98E2,9.53E2,9.71E2,4.23E2,7.82E2,4.79E2,1.363E3,4.7E1,8.82E2,5.45E2,4.81E2,1.31E2,1.68E2,1.76E2,1.4E1,2E1,2.85E2,2.13E2,5.97E2,3.56E2,8.4E2,1.31E2,3.26E2,9.7E1,7.6E2,2.2E1,3.53E2,1.26E2,4.3E1,1.32E3,3.6E1,1.1E1,4.85E2,3.97E2,2.79E2,2.66E2,2.53E2,2.28E2,9E1,4.1E1,1.28E2,4E1,6.7E1,1.09E2,1.7E1,3E0,2.27E2,5.8E1,1.79E2,3.4E1,3.65E2,2.32E2,3.17E2,3.9E1,5.01E2,3.39E2,1E2,3.1E1,2.32E2,9.4E1,7.7E1,2E1,1.9E1,7.41E2,4E0,1.8E1,2.09E2,1.44E2,8.1E1,4.5E1,2.8E1,1.5E1,7.27E2,5.93E2,3.3E1,3E0,2.71E2,2.14E2,1.15E2,2.82E2,3E0,2.76E2,1.53E2,1E2,2.24E2,4E0,2.8E1,1E2,4E0,3.6E1,7E1,3.9E1,2.19E2,1.3E1,3.6E1,3E0,4.15E2,8.6E1,3.34E2,5E0,2.8E1,3E0,2.17E2,1.5E1,1.7E1,3E0,6.99E2,4.2E1,1.3E1,5E0,2.05E2,4E0,3E0,1.41E2,3.3E1,4.8E1,4.2E1,3E0,1.3E1,1.5E1,3E0,1.2E1,7.22E2,5E0,4.26E2,1.67E2,1.2E1,2.1E1,2.2E1,6E0,9.6E1,4E0,2.69E2,1.46E2,3.22E2,1.2E1,1.4E1,3E0,3.5E2,3.49E2,3.9E1,3E0,9E0,4E0,9.2E1,1.13E2,8.4E1,5.7E1,3E1,3E0,4.5E1,3E0,3E1,1.2E1,9E0,3E0,3.57E2,3.65E2,2.86E2,1.4E2,1.52E2,1.5E1,3E0,9E0,4E0,1.7E1,1.1E1,8.5E1],"tree_param":{"num_deleted":"0","num_feature":"38","num_nodes":"183","size_leaf_vector":"1"}},{"base_weights":[2.560954E-1,-1.2970343E1,2.566225E1,-2.332338E1,-3.2133257E0,1.9289888E1,7.153889E1,-2.7692968E1,-1.8986933E1,-8.16992E0,2.6073606E0,1.3861348E1,3.12827E1,6.246358E1,1.4417088E2,-3.1241516E1,-2.5775097E1,-2.1228674E1,-1.631037E1,-1.1200379E1,-5.206593E0,3.182918E0,-1.4695768E1,9.062188E0,1.8339312E1,2.669304E1,3.767818E1,5.6274708E1,4.1193476E0,6.285625E0,9.278901E0,-1.6167872E0,-1.3665355E0,-2.6962622E1,-2.342637E1,-2.1619062E1,-1.2525729E1,-1.696785E1,-1.0692956E1,-1.1004968E1,-1.3571557E0,-4.854209E0,-1.1516412E0,1.784757E0,1.0235323E1,-1.939684E1,-3.4399443E0,9.988973E-1,1.039477E1,1.6338036E1,2.1586468E1,2.4092411E1,2.9206614E1,1.6931947E0,2.0497375E0,2.5321937E0,5.988878E1,-5.837833E-1,-2.705492E1,-1.189212E0,-7.0683235E-1,-2.2675556E1,-1.989986E1,-6.786996E-1,-8.971977E-2,-1.8773617E1,-1.5842567E1,-1.1402727E1,-9.656919E-2,-1.1395225E1,-4.5267134E0,-7.200604E0,-3.6733902E0,-2.4454558E-1,3.2164025E0,8.477317E0,1.5269477E1,-1.1768426E0,-6.404688E-1,-8.317507E0,3.0138284E-1,-2.498434E0,3.4014807E0,1.05474825E1,-9.082532E-1,1.353492E1,1.7670078E1,1.7826479E1,2.333171E1,8.2956326E-1,1.2379785E0,1.2447777E0,3.0381123E1,1.4247584E0,6.0390194E1,-1.3753768E0,-1.2145975E0,-2.3021206E1,-8.402395E-1,-1.9991913E1,-4.5167723E-1,-1.7404222E1,-2.271545E1,-1.6658024E1,-1.4613939E1,-5.9296405E-1,-3.7743115E-1,-1.1660105E1,-2.2168508E0,-5.6267815E0,8.5192204E-1,-5.593691E0,-8.801023E0,-6.065079E-1,-4.9360332E0,3.7178582E-1,-6.946766E0,2.5669572E0,5.5485115E0,9.097663E0,-1.3226666E-1,1.5995526E1,1.4605132E-1,-5.840678E-1,-2.3443444E-1,-5.412815E0,-8.196305E-1,4.4704876E0,-5.174882E0,8.553712E0,1.2527783E1,7.075559E-1,1.1023278E1,1.5852823E1,1.9245779E1,1.8654448E1,3.4517288E0,1.1001996E0,2.573334E1,1.3205379E0,1.5863655E0,3.0431807E0,1.5071635E0,-1.1282569E0,-1.4828194E0,-9.356538E-1,-1.0698577E0,-8.7981576E-1,-4.176345E-1,-1.1823485E0,-5.08065E-1,-7.660957E-1,-8.8779926E-1,-7.519112E-1,-5.571379E-1,-6.963572E-1,-5.162721E-1,-2.0412777E-1,9.15626E-2,-3.0781993E-1,-1.314414E-1,-4.894152E-2,1.0730698E-1,-2.9570353E-1,8.196964E-2,-4.026167E-1,-5.955729E-1,-1.4652582E-1,1.0193665E-1,-2.0477287E-1,-3.754846E-1,-3.8670313E-2,2.2784893E-1,4.278442E-1,-4.9079686E-1,1.21729575E-1,8.54054E-1,1.8976824E-1,3.8517386E-1,4.2606473E-1,8.238084E-1,1.6585188E-1,-2.4674194E-1,8.3731574E-1,3.1698158E-1,-2.933863E-1,-1.2337103E-1,-1.570215E-1,1.3626705E-2,1.1925205E-1,2.8349838E-1,-3.6579278E-1,-6.024723E-2,4.8492813E-1,2.9015264E-1,5.7494694E-1,8.607771E-1,8.7531585E-1,4.9983692E-1,7.9853284E-1,3.4703255E-1,8.9626217E-1,1.1739384E0,7.85738E-1,1.0215464E0,-2.3257066E-2,3.2528335E-1,1.3577381E0,8.2408905E-1],"categories":[],"categories_nodes":[],"categories_segments":[],"categories_sizes":[],"default_left":[0,0,0,0,0,0,0,0,0,0,0,0,0,0,0,0,0,0,0,0,0,0,0,0,0,0,0,0,0,0,0,0,0,0,0,0,0,0,0,0,0,0,0,0,0,0,0,0,0,0,0,0,0,0,0,0,0,0,0,0,0,0,0,0,0,0,0,0,0,0,0,0,0,0,0,0,0,0,0,0,0,0,0,0,0,0,0,0,0,0,0,0,0,0,0,0,0,0,0,0,0,0,0,0,0,0,0,0,0,0,0,0,0,0,0,0,0,0,0,0,0,0,0,0,0,0,0,0,0,0,0,0,0,0,0,0,0,0,0,0,0,0,0,0,0,0,0,0,0,0,0,0,0,0,0,0,0,0,0,0,0,0,0,0,0,0,0,0,0,0,0,0,0,0,0,0,0,0,0,0,0,0,0,0,0,0,0,0,0,0,0,0,0,0,0,0,0,0,0,0,0,0,0,0,0,0,0,0,0],"id":10,"left_children":[1,3,5,7,9,11,13,15,17,19,21,23,25,27,29,31,33,35,37,39,41,43,45,47,49,51,53,55,-1,-1,-1,-1,-1,57,59,61,63,65,67,69,-1,71,-1,73,75,77,79,81,83,85,87,89,91,-1,-1,-1,93,-1,95,-1,-1,97,99,-1,-1,101,103,105,-1,107,109,111,113,115,117,119,121,-1,-1,123,-1,125,127,129,-1,131,133,135,137,-1,-1,-1,139,-1,141,-1,-1,143,-1,145,-1,147,149,151,153,-1,-1,155,157,159,161,163,165,167,169,171,173,175,177,179,181,183,-1,-1,-1,185,187,189,191,193,195,-1,197,199,201,203,205,-1,207,-1,-1,-1,-1,-1,-1,-1,-1,-1,-1,-1,-1,-1,-1,-1,-1,-1,-1,-1,-1,-1,-1,-1,-1,-1,-1,-1,-1,-1,-1,-1,-1,-1,-1,-1,-1,-1,-1,-1,-1,-1,-1,-1,-1,-1,-1,-1,-1,-1,-1,-1,-1,-1,-1,-1,-1,-1,-1,-1,-1,-1,-1,-1,-1,-1,-1,-1,-1,-1,-1],"loss_changes":[2.666754E6,5.271212E5,7.929149E5,4.7451875E4,7.7572195E4,1.5496831E5,2.0917562E5,7.763E3,7.2979062E3,1.2980992E4,1.236599E4,3.5185625E4,2.0803688E4,3.1861625E4,4.1856875E3,9.863125E2,1.663875E3,2.0735E3,1.9791719E3,1.9350391E3,4.5115117E3,1.1794487E4,2.0498525E3,8.542633E3,5.171E3,2.1464062E3,2.5080312E3,1.6271875E3,0E0,0E0,0E0,0E0,0E0,4.4603125E2,6.079219E2,7.4571875E2,3.3561914E2,7.632969E2,3.7597363E2,1.7434219E3,0E0,1.9767422E3,0E0,2.9089329E3,1.6228711E3,4.621289E2,6.504596E2,9.6639825E2,3.170461E3,1.7397969E3,1.6905156E3,6.901875E2,3.4240625E2,0E0,0E0,0E0,3.8853125E2,0E0,2.0625E0,0E0,0E0,4.2684375E2,7.847656E1,0E0,0E0,6.5725E2,8.517969E1,1.4295898E1,0E0,1.6006094E3,2.5330188E2,5.705576E2,1.8673652E3,1.7168601E3,8.7481445E2,7.97E2,4.0155566E2,0E0,0E0,5.5090942E1,0E0,2.2551907E2,6.465712E2,2.5776562E3,0E0,1.1484961E2,7.142969E2,1.1972031E3,1.2252344E2,0E0,0E0,0E0,4.9296875E1,0E0,4.11875E1,0E0,0E0,4.6860938E2,0E0,5.9648438E1,0E0,1.1209766E2,3.0935352E2,6.6757812E0,3.7146484E1,0E0,0E0,1.8229141E3,1.585275E2,3.9387695E1,2.1055841E1,2.9472705E2,1.8120605E2,8.7892834E2,7.091113E2,1.8296002E3,1.6408855E3,8.440737E2,4.5056445E2,4.5073145E2,1.9858987E2,2.3456348E2,0E0,0E0,0E0,8.300049E0,7.943141E1,1.3906543E2,5.918103E1,1.02071094E3,1.4370273E3,0E0,8.454248E1,6.873047E1,6.1884375E2,2.0116406E2,8.675921E1,0E0,4.861211E2,0E0,0E0,0E0,0E0,0E0,0E0,0E0,0E0,0E0,0E0,0E0,0E0,0E0,0E0,0E0,0E0,0E0,0E0,0E0,0E0,0E0,0E0,0E0,0E0,0E0,0E0,0E0,0E0,0E0,0E0,0E0,0E0,0E0,0E0,0E0,0E0,0E0,0E0,0E0,0E0,0E0,0E0,0E0,0E0,0E0,0E0,0E0,0E0,0E0,0E0,0E0,0E0,0E0,0E0,0E0,0E0,0E0,0E0,0E0,0E0,0E0,0E0,0E0,0E0,0E0,0E0,0E0,0E0,0E0,0E0],"parents":[2147483647,0,0,1,1,2,2,3,3,4,4,5,5,6,6,7,7,8,8,9,9,10,10,11,11,12,12,13,13,14,14,15,15,16,16,17,17,18,18,19,19,20,20,21,21,22,22,23,23,24,24,25,25,26,26,27,27,33,33,34,34,35,35,36,36,37,37,38,38,39,39,41,41,43,43,44,44,45,45,46,46,47,47,48,48,49,49,50,50,51,51,52,52,56,56,58,58,61,61,62,62,65,65,66,66,67,67,69,69,70,70,71,71,72,72,73,73,74,74,75,75,76,76,79,79,81,81,82,82,83,83,85,85,86,86,87,87,88,88,92,92,94,94,97,97,99,99,101,101,102,102,103,103,104,104,107,107,108,108,109,109,110,110,111,111,112,112,113,113,114,114,115,115,116,116,117,117,118,118,119,119,120,120,121,121,125,125,126,126,127,127,128,128,129,129,130,130,132,132,133,133,134,134,135,135,136,136,138,138],"right_children":[2,4,6,8,10,12,14,16,18,20,22,24,26,28,30,32,34,36,38,40,42,44,46,48,50,52,54,56,-1,-1,-1,-1,-1,58,60,62,64,66,68,70,-1,72,-1,74,76,78,80,82,84,86,88,90,92,-1,-1,-1,94,-1,96,-1,-1,98,100,-1,-1,102,104,106,-1,108,110,112,114,116,118,120,122,-1,-1,124,-1,126,128,130,-1,132,134,136,138,-1,-1,-1,140,-1,142,-1,-1,144,-1,146,-1,148,150,152,154,-1,-1,156,158,160,162,164,166,168,170,172,174,176,178,180,182,184,-1,-1,-1,186,188,190,192,194,196,-1,198,200,202,204,206,-1,208,-1,-1,-1,-1,-1,-1,-1,-1,-1,-1,-1,-1,-1,-1,-1,-1,-1,-1,-1,-1,-1,-1,-1,-1,-1,-1,-1,-1,-1,-1,-1,-1,-1,-1,-1,-1,-1,-1,-1,-1,-1,-1,-1,-1,-1,-1,-1,-1,-1,-1,-1,-1,-1,-1,-1,-1,-1,-1,-1,-1,-1,-1,-1,-1,-1,-1,-1,-1,-1,-1],"split_conditions":[2.4646823E-1,-5.93348E-1,1.9637287E0,-1.009004E0,-7.814818E-2,1.1313673E0,3.3044407E0,-1.2375417E0,-7.9820526E-1,-3.483633E-1,4.140094E0,5.868842E-1,1.5419686E0,2.5808518E0,3.398467E-1,-1.108621E0,-7.292149E-1,1.2449073E-2,1.7535792E-1,1.2438133E0,1.811544E0,4.125963E-1,-4.6143973E-1,-9.428203E-2,8.9197415E-1,1.3191328E0,1.7204323E0,2.1717353E0,4.1193476E0,6.285625E0,9.278901E0,-1.6167872E0,-1.3665355E0,-1.3062173E0,2.929859E-1,-4.1319624E-1,7.291867E-1,-7.711148E-1,4.298009E-1,6.3729024E-1,-1.3571557E0,-2.5140277E-1,-1.1516412E0,-8.212135E-2,6.9693357E-1,-5.9545815E-1,2.0536745E-1,-2.2901104E-1,4.140094E0,5.8774287E-1,-5.0317794E-1,3.5821182E-1,6.182938E-1,1.6931947E0,2.0497375E0,2.5321937E0,1.5218548E0,-5.837833E-1,-9.8063177E-1,-1.189212E0,-7.0683235E-1,-5.799916E-1,-1.4538065E-1,-6.786996E-1,-8.971977E-2,-3.462152E-2,-6.6636986E-1,5.654817E-1,-9.656919E-2,1.9667684E0,4.298009E-1,-2.2689797E-1,-2.582618E-1,7.291867E-1,4.711661E-1,1.941933E0,1.0776992E0,-1.1768426E0,-6.404688E-1,3.8382128E-1,3.0138284E-1,-4.6910837E-1,2.7121603E-1,4.6167648E-1,-9.082532E-1,7.212617E-2,2.2986501E-1,3.4247844E0,1.1139673E0,8.2956326E-1,1.2379785E0,1.2447777E0,-4.10394E-1,1.4247584E0,3.3796153E0,-1.3753768E0,-1.2145975E0,2.5753146E-1,-8.402395E-1,5.848608E-16,-4.5167723E-1,1.5067955E0,-1.3245407E-1,-7.1587753E-1,1.3659796E0,-5.9296405E-1,-3.7743115E-1,-5.360688E-1,2.2389948E0,9.758161E-1,-5.312623E-1,1.8926346E0,-2.1705762E-2,-1.08159095E-1,1.2501915E-1,1.817337E-1,-4.7305444E-1,1.6106654E0,-8.7213434E-2,3.2681262E0,6.45095E-1,7.238759E-1,1.4605132E-1,-5.840678E-1,-2.3443444E-1,4.5003912E-1,-4.063397E-1,-1.855961E-1,3.4014747E-1,4.4656026E-1,5.876663E-1,7.075559E-1,-1.0003269E0,5.876663E-1,7.212617E-2,1.2034123E0,-7.0739883E-1,1.1001996E0,1.6106654E0,1.3205379E0,1.5863655E0,3.0431807E0,1.5071635E0,-1.1282569E0,-1.4828194E0,-9.356538E-1,-1.0698577E0,-8.7981576E-1,-4.176345E-1,-1.1823485E0,-5.08065E-1,-7.660957E-1,-8.8779926E-1,-7.519112E-1,-5.571379E-1,-6.963572E-1,-5.162721E-1,-2.0412777E-1,9.15626E-2,-3.0781993E-1,-1.314414E-1,-4.894152E-2,1.0730698E-1,-2.9570353E-1,8.196964E-2,-4.026167E-1,-5.955729E-1,-1.4652582E-1,1.0193665E-1,-2.0477287E-1,-3.754846E-1,-3.8670313E-2,2.2784893E-1,4.278442E-1,-4.9079686E-1,1.21729575E-1,8.54054E-1,1.8976824E-1,3.8517386E-1,4.2606473E-1,8.238084E-1,1.6585188E-1,-2.4674194E-1,8.3731574E-1,3.1698158E-1,-2.933863E-1,-1.2337103E-1,-1.570215E-1,1.3626705E-2,1.1925205E-1,2.8349838E-1,-3.6579278E-1,-6.024723E-2,4.8492813E-1,2.9015264E-1,5.7494694E-1,8.607771E-1,8.7531585E-1,4.9983692E-1,7.9853284E-1,3.4703255E-1,8.9626217E-1,1.1739384E0,7.85738E-1,1.0215464E0,-2.3257066E-2,3.2528335E-1,1.3577381E0,8.2408905E-1],"split_indices":[0,22,0,22,22,0,0,22,22,22,23,22,0,0,4,3,3,3,3,23,23,22,0,28,22,0,0,0,0,0,0,0,0,17,23,3,23,0,23,3,0,22,0,0,22,3,3,28,23,0,7,28,28,0,0,0,28,0,29,0,0,0,0,0,0,23,22,3,0,4,23,18,18,23,3,27,5,0,0,4,0,23,17,0,0,23,3,23,22,0,0,0,5,0,8,0,0,23,0,3,0,4,3,18,13,0,0,0,4,3,22,4,23,23,18,22,8,23,31,4,22,21,0,0,0,0,28,28,0,18,23,0,13,23,23,29,13,0,23,0,0,0,0,0,0,0,0,0,0,0,0,0,0,0,0,0,0,0,0,0,0,0,0,0,0,0,0,0,0,0,0,0,0,0,0,0,0,0,0,0,0,0,0,0,0,0,0,0,0,0,0,0,0,0,0,0,0,0,0,0,0,0,0,0,0,0,0,0,0],"split_type":[0,0,0,0,0,0,0,0,0,0,0,0,0,0,0,0,0,0,0,0,0,0,0,0,0,0,0,0,0,0,0,0,0,0,0,0,0,0,0,0,0,0,0,0,0,0,0,0,0,0,0,